9996 16
the 0.038250696 -0.0316268 0.015853262 0.026201015 -0.026876573 -0.015342936 -0.0186091 -0.020589333 0.019447371 0.027568648 -0.01241435 0.03642709 -0.01832568 0.027219538 0.013231296 -0.047954928
and 0.0050137616 0.035616357 5.3388496e-05 -0.028380455 -0.036144424 0.017076815 -0.03873003 -0.016647419 -0.029744795 -0.04019011 0.013294411 0.011931317 0.044475626 -0.02325273 -0.03479991 0.040363174
a -0.052772265 0.020820484 -0.011080366 0.025741078 0.0030178318 0.024418639 0.02309501 0.005147605 0.03416439 -0.045399304 -0.002733959 -0.026165208 -0.010107791 -0.01259978 0.0007047756 0.002319991
of -0.0335376 -0.050369587 -0.04743842 -0.0056463517 -0.009986541 0.0058327047 -0.027440285 0.025980264 0.0137451235 -0.0104275355 0.039545543 -0.03974343 0.035459593 0.0051044123 0.01252397 -0.018319555
to -0.0046655885 0.03627978 0.046743684 0.047771767 0.0011497824 -0.013679188 0.03178872 -0.038022924 0.011462932 0.03435408 -0.0052888733 -0.008350324 -0.013448922 0.044716325 -0.019891104 0.0023653184
is -0.015206927 -0.011846397 -0.0063551273 -0.04264196 0.038935166 -0.041018687 -0.029888608 0.0037709104 0.02627085 0.022093587 -2.4402822e-05 -0.013357657 0.032937355 -0.013561486 -0.04144979 -0.008216816
br 0.029485323 0.014589243 0.012034864 -0.035446875 0.03248049 -0.012399799 -0.021414721 -0.022938887 0.02244276 0.0050069313 -0.058502875 -0.004562889 -0.03728378 -0.040439177 -0.04950224 -0.004760834
in 0.052947115 -0.0381671 0.055388175 -0.045434814 -0.012430033 0.010548122 -0.010084542 0.012849432 0.043910444 -0.0038937526 -0.0453841 0.022557326 0.012469541 0.037604358 0.028180644 -0.017702295
it -0.002872298 0.039489944 -0.02762093 0.0025937913 -0.038343847 -0.010582195 -0.017604997 0.0060553467 0.043691836 -0.0043165935 -0.02012967 -0.030858729 -0.008075499 -0.03181676 -0.017167881 -0.037141684
i 0.0209108 0.009072559 0.032202374 0.018359987 0.033675905 0.0139093995 -0.03169456 0.02589454 -0.029510867 0.009105583 -0.021160364 0.014970893 -0.009555155 0.05192499 -0.019980347 0.00053809286
this 0.05264394 -0.003243112 0.04342105 -0.008817043 0.04560224 0.02937416 -0.045532517 0.039457105 0.0045963884 -0.012115493 -0.028387936 -0.005393022 0.014840212 0.056934725 -0.02514153 -0.009792912
that -0.010110384 -0.04754051 -0.008259504 -0.0035663 -0.004894531 0.004123958 0.0011466148 -0.033559427 -0.0379624 0.054868873 -0.029442685 0.026009103 -0.031699482 -0.030385902 0.029652638 -0.012831786
was -0.03726468 -0.03479872 0.01511749 -0.03490131 0.022607172 0.007968553 0.01682148 -0.037770364 -0.039822258 -0.04107862 0.029995434 0.01996819 -0.03191074 -0.010492098 0.034881976 -0.0141895525
as -0.006938532 -0.042573947 0.023396522 0.0071803285 0.03131953 -0.034043055 0.0045508393 0.0074789366 -0.007235757 0.028838655 0.039184548 0.043337505 -0.007820537 -0.05110877 -0.021173429 -0.029295703
for -0.05316463 0.058117118 -0.048833337 0.036344595 -0.012081943 0.006918066 0.049691077 -0.018739581 0.013428166 0.042057402 -0.024963178 -0.03318013 -0.016018944 0.015101638 -0.050481692 0.029766265
with -0.0075064586 0.005982412 0.018521575 -0.0063060555 0.042983525 -0.014415 -0.005807568 -0.00483938 0.019929834 -0.051960018 -0.021999754 0.028812675 -0.0062562977 0.03462805 0.032239903 -0.039354518
movie 0.034755863 0.047552522 0.0017952145 -0.033211518 -0.030782774 0.0082755815 -0.01491615 -0.023378737 0.009612976 0.034287 -0.058926787 0.004770383 0.034066383 0.035476275 0.044249542 -0.030999048
but 0.021285346 -0.025132298 0.009196174 0.036370613 -0.027482398 -0.027249524 -0.007474763 -0.039529257 -0.047881275 -0.016057914 0.007971033 0.038184367 0.027113318 -0.043858156 -0.021648156 0.019952578
film 0.031143181 0.039375033 -0.029893186 0.025607597 0.03655109 0.034333162 0.012827849 0.026675923 -0.03391044 -0.0015788964 -0.020728907 -0.04744384 0.008436902 0.019122962 -0.0492128 -0.03897326
on -0.040640377 -0.041322406 0.009715656 -0.038939815 -0.050957788 -0.05310873 0.026757943 -0.020162493 -0.0068799043 -0.03174688 -0.029037168 0.037876733 -0.044250906 -0.012419902 0.051483046 0.03221132
not -0.038818963 -0.03217124 0.022601802 0.018826777 0.03979928 -0.004700556 0.0049735475 -0.04096809 0.039838027 0.042092204 0.012286813 -0.021610722 -0.054441508 0.02016078 0.022151792 0.015084176
you 0.017265469 -0.022163391 0.035062294 0.009993831 -0.04296288 0.008289229 0.026309947 -0.0026344352 0.02551119 -0.028246365 -0.04900738 0.061374843 -0.051895283 0.03279108 -0.0018764003 -0.02784726
are -0.028156735 -0.019399881 -0.032283522 0.04334753 0.046387054 -0.047598854 0.0076101534 0.037538365 -0.016565206 -0.013024159 -0.02022212 -0.038130865 0.06017093 0.027158212 -0.041335072 0.0005128271
his -0.011418954 0.026863724 0.0024620597 0.048077922 -0.0051833126 0.04601518 -0.0030521024 -0.013229612 -0.0059502553 -0.052890386 0.046626486 -0.02298933 0.030280022 0.02065664 -0.04295195 -0.020701054
have -0.05389246 -0.009847298 -0.029422691 0.0033984142 -0.00073389086 2.5867237e-05 -0.045959223 -0.010292737 -0.013713368 0.043435745 -0.0038682378 0.03813604 -0.024971226 0.0062498124 0.010586689 0.05315313
he -0.03574329 0.049221553 0.0013978035 -0.029481063 -0.01190618 -0.053621594 0.02229214 0.021408115 -0.01482544 -0.058948673 0.013658197 0.028894674 0.0385957 0.03490319 0.03315972 0.026808437
be 0.02878666 0.042398762 -0.0047224867 -0.047080036 -0.003566523 -0.022695135 0.041425757 0.0055186464 -0.034717984 0.008232428 0.036617696 -0.039559364 -0.048438214 0.0013578188 -0.031829506 0.011587126
one 0.02562842 -0.0144649735 -0.03698141 0.05458947 -0.03708767 -0.00083958555 0.04165093 0.026809061 0.017903673 0.013451588 -0.018803654 0.014603513 -0.019222751 0.028385788 -0.015660865 -0.032427985
all -0.023129173 0.016366526 0.0046363454 -0.025280861 0.050886102 -0.051404197 -0.009023031 0.028120518 -0.0106756175 -0.024687093 0.004527771 -0.026961135 -0.01849057 -0.019136205 -0.017618228 -0.0048121116
at -0.031137936 0.0398653 0.001809425 0.012005209 0.029643264 0.016599068 -0.033468395 0.013229992 0.03991807 -0.04678345 -0.03231081 -0.0050894045 0.024666328 -0.03925864 -0.007743218 0.032461002
by -0.018989487 -0.021708747 0.019011032 -0.025671497 0.0209102 0.011737376 0.033339906 0.019806946 -0.024135513 0.0033345143 0.011410291 0.010357624 0.039517608 0.019737152 0.052507542 0.009636655
an 0.03790057 0.037905786 0.04081224 -0.010225043 -0.0034050948 -0.0454029 -0.04594592 -0.012668134 0.025298541 0.033827797 -0.041135535 0.045230374 -0.0222022 -0.024275402 0.0032376873 0.035733514
they 0.043278698 -0.035459377 0.0004467931 0.021847354 0.038480833 0.046354204 -0.0019111242 -0.007867824 0.007658613 -0.014207129 -0.0073774024 -0.038290214 -0.0126766 -0.0070909397 0.019296348 -0.0013463922
who 0.011352131 0.001903817 0.019461157 0.0014890407 -0.039031323 0.058908656 -0.00019022761 0.05217829 -0.044992726 -0.042395826 0.014068494 0.035189368 0.022072738 -0.016831182 0.029561989 0.043759756
so 0.020107387 -0.04266505 -0.025022494 -0.022035275 -0.040601037 -0.031881485 -0.016858816 -0.011038353 -0.034928456 -0.028081726 -0.04274429 0.015222802 0.04508038 0.008597209 0.030016001 -0.017117897
from -0.008364051 -0.014295542 0.017701672 -0.035185933 0.01027655 -0.037911482 -0.04667614 0.0020996104 0.0328147 -0.011336302 -0.013774353 -0.026715623 -0.03548781 0.026416145 -0.046803474 0.036158964
like 0.041000903 0.03735155 0.002545736 0.020916156 0.023499133 -0.028299432 0.031186977 0.055490714 -0.034111623 -0.022956861 -0.009411067 -0.017849008 0.02026245 -0.016006915 -0.045706388 0.009578794
her -0.01804179 0.0060690404 -0.014563083 -0.016633714 0.038381897 -0.03481487 0.02604782 0.017402422 -0.045774534 0.045900423 0.016085852 -0.01749033 1.7053038e-05 0.0056575043 0.0036886686 0.048095006
or -0.039997697 -0.04054133 -0.019337114 -0.042494066 -0.04446417 0.0024259195 0.027761776 -0.029200206 0.05309628 0.010787304 0.025444543 -0.044542454 -0.029868608 0.0002959826 0.044214275 0.047119297
just 0.011862639 -0.011202967 0.0014247253 -0.003697284 0.031663965 0.0050754747 -5.0693114e-05 0.028374081 0.0063000387 -0.0046397382 0.041698933 0.0070497813 0.028541518 0.023990218 -0.013344097 -0.016251408
about 0.0042584497 -0.00697863 0.026710812 0.022300916 -0.03343663 0.013738635 -0.0033154844 0.051840454 0.04756678 -0.0061868387 0.027512155 -0.034976974 -0.0013986888 0.009911924 -0.058272764 -0.027087031
it's 0.018063616 0.053747177 -0.011361552 0.039468262 0.008980962 0.043830853 0.027868254 0.040400054 0.020197881 -0.035890494 -0.0314416 -0.040479075 0.00893403 -0.018172638 -0.03810465 0.049345266
out -0.04013073 -0.017829904 -0.0033752557 0.0550994 0.054687645 0.05500577 0.0034041274 -0.048144117 -0.025925774 0.028262407 -0.04007526 -0.05807233 -0.0067285886 -0.0069775875 -0.002731934 0.047113508
has 0.038336515 0.008539874 -0.00032027785 0.048942316 -0.006450211 -0.036434274 0.02320852 -0.008469591 0.0084396005 0.05137456 0.019194098 -0.052315194 0.048948005 -0.0266435 0.00495816 0.039494213
if 0.023024663 -0.052023955 -0.032030515 0.023797387 0.01618988 0.0024185905 0.044814367 0.009175687 -0.012881251 -0.021037536 -0.03040668 0.05698677 -0.03167791 -0.013676003 5.7863686e-05 0.0018004769
some 0.023264522 0.014857247 -0.047158603 0.041608036 -0.0067292457 0.03695478 0.032410257 -0.031046078 0.021840755 0.007256761 -0.040282466 -0.025330901 -0.023201296 -0.016653012 -0.015972106 0.018755324
there -0.028329859 0.009227531 -0.046669412 0.01576368 0.017231846 0.009057488 0.03350732 0.0013121164 0.011581707 0.03600954 0.03915703 0.00025607433 -0.008503183 0.002098072 -0.015226896 -0.01927162
what 0.036288645 0.040947776 0.0390709 -0.035043612 -0.030295758 0.054292437 -0.0477245 -0.0029622817 0.007369677 -0.026827658 0.049641 -0.016930453 -0.020563742 0.04012076 -0.014538499 -0.037120473
good 0.026526004 -0.004989115 -0.0003586592 -0.0046436354 0.030528985 -0.01486802 -0.02746664 0.0029288705 0.007424862 0.0016821359 -0.029798575 0.03143226 -0.011843735 -0.013449181 0.03345988 -0.012125459
more 0.028057978 -0.0054756515 0.041483194 -0.04375654 0.050330896 0.022912418 -0.012575977 -0.047526024 0.03280164 -0.029850386 0.030193398 -0.0008669315 0.020691913 0.016635524 -0.04634463 0.046094667
when -0.017073264 -0.00839517 0.043228224 -0.061270915 0.028827379 0.023943473 -0.03552687 0.009328774 0.023609554 -0.030770661 -0.013935346 0.013752963 -0.03207082 -0.02107406 -0.022409607 -0.006879164
very 0.004082354 -0.0031186992 0.006915516 -0.032302834 -0.0010132028 -0.024550864 -0.019068383 0.02167357 -0.041510582 0.013251563 0.05460384 -0.057960704 -0.045075867 0.024128767 -0.030733438 0.046325568
up 0.00811936 -0.046849888 0.004696129 -0.059369616 0.03271831 0.030665847 -0.04688848 -0.020298373 -0.041011214 -0.040184937 9.50027e-05 0.04030107 -0.04754129 0.011323468 0.032076824 0.04714336
no -0.032686178 -0.042861506 -0.019461632 -0.006278454 -0.05062089 0.046823535 0.007835176 0.022012966 0.026480792 0.028333792 -0.021646924 0.017076047 0.045740664 0.0050795386 0.021026187 0.03765979
time -0.05041098 0.011577832 0.0084075155 0.02860983 0.051578186 0.024312487 0.02923089 0.017308982 0.003124523 0.045185138 0.0014667839 0.0049798093 -0.04437539 0.029300198 -0.0013425511 -0.0033666925
she -0.04451461 -0.017990142 -0.033173814 -0.032367446 -0.032265916 -0.025213474 -0.050000656 -0.036616627 -0.03162312 -0.020353016 0.03001088 -0.02096997 0.037157618 -0.04795029 0.02665031 -0.004955525
even 0.022838576 -0.0171789 -0.038990248 -0.010336327 0.033448696 -0.024766056 0.036050588 0.013912329 0.044600308 0.031825393 0.03615627 0.03357384 0.03193215 0.014524129 -0.00785658 0.03174125
my -0.050667882 0.036675137 -0.034509692 0.05867979 -0.038614128 0.02847439 -0.011845253 -0.015373929 -0.016058857 0.050649002 0.032475498 -0.016515762 -0.040057298 0.0049025095 -0.0297486 -0.00933564
would -0.031558763 0.020575028 0.037198793 0.02631762 -0.03045932 0.043678317 -0.049176846 -0.05153978 0.032726336 -0.014524052 0.025008451 0.027692089 -0.04466974 0.026028197 -0.036086183 -0.020803962
which 0.03652624 0.026233349 -0.010994863 -0.029030213 -0.023476444 -0.024205148 -0.02486328 -0.044259593 0.022718988 -0.01211064 0.0024068228 0.0072203157 -0.03811298 -0.037206527 0.028953355 0.039824788
only -0.042995676 0.04799711 -0.014903806 0.005322898 0.048959736 -0.012185107 0.047067232 -0.037850805 0.013666878 -0.021586383 -0.024594799 -0.027300121 -0.011831344 -1.1457786e-05 0.027972292 -0.011053863
story -0.03792539 -0.010456148 0.019722253 0.01723998 0.058133353 -0.0029937718 -0.038004097 0.02574879 0.013343566 -0.04158958 -0.010989946 0.04176929 0.01926754 -0.02104361 0.03788567 -0.04010715
really 0.037277706 0.049933694 0.0052423044 -0.031747892 0.018324848 0.0024537279 0.047655724 -0.011826976 -0.015470378 0.036964025 0.05168802 0.035334434 -0.012697086 0.012890125 -0.00022570035 0.045690335
see -0.050077997 0.036840852 -0.02458922 0.007162831 -0.004477327 -0.03454433 -0.016068615 0.028507126 -0.031232577 -0.0256613 0.022410886 -0.0061625936 0.015247694 -0.0071927593 0.04143811 0.04027549
their 0.020998145 0.050509676 -0.018430492 0.0086174635 0.0012398923 0.037694752 0.022396445 -0.034596268 -0.0025934684 -0.010478836 0.042243797 -0.034785543 0.033801395 -0.02262533 -0.018507015 -0.03586096
had 0.036804184 -0.0008516575 0.019299744 0.018403023 0.04938006 -0.047163144 0.037718844 -0.020079976 0.011143983 -0.050227653 -0.030029494 0.039197706 0.012621933 -0.033529792 0.04737339 -0.016198574
can 0.022826793 0.031668324 -0.039574593 0.020087738 -0.029660942 -0.00033921385 0.03399393 0.005759103 -0.026637614 0.0009228368 -0.032383844 0.008681603 -0.0146151045 -0.053352218 0.01857301 -0.0063203024
were -0.027361851 0.04646953 0.041629154 -0.02325816 0.033938482 0.003622265 0.03857989 -0.018447952 -0.021960642 0.0382701 -0.014917607 0.01665982 0.038832225 0.0051740855 0.028306143 0.027469035
me -0.02029718 0.015009422 0.03481897 0.018988488 -0.01050368 0.044001963 -0.005404078 -0.01693729 0.032340232 -0.020967217 -0.038771927 0.012630876 -0.015292625 0.010592986 -0.0048998017 -0.033463817
well 0.04892718 -0.00043433794 0.048464797 -0.021806214 -0.052015226 0.0013978505 0.0050177905 -0.0038371924 0.030478291 -0.0053786184 -0.046931203 -0.027087027 0.038779166 0.002971883 -0.015028857 0.0062962607
than -0.00082284363 -0.04152143 -0.025945058 0.01695947 -0.046504978 -0.030912654 0.011509874 -0.008539399 -0.006386647 0.0014627618 -0.034826353 0.048202947 -0.025488472 -0.021194177 -0.0027652334 0.055945016
we -0.028060075 0.012737881 0.010724793 -0.02107374 0.008741319 0.021360284 0.05047994 -0.000758223 0.029434305 -0.015620658 -0.042699948 0.028538423 0.029675256 -0.04844951 -0.04776614 0.031133467
much 0.0058178697 -0.003736885 -0.012086634 -0.0550543 0.005594705 -0.020616831 -0.01757149 0.033425756 0.03785052 0.00028127126 0.048893087 0.045144115 -0.048970036 -0.018155126 0.042439047 -0.026469966
been 0.019332986 0.001568531 -0.017052744 0.023477875 -0.040242497 -0.016239423 -0.010709856 0.05484435 -0.039231326 -0.040245783 0.021409603 0.0035425094 -0.017092472 0.043186206 -0.034455474 0.031215182
bad -0.042853642 -0.024948847 -0.042234097 0.038785152 0.032654546 0.018196803 -0.019784544 -0.04246771 -0.05082514 0.026575934 0.006626138 -0.030438777 -0.03335285 0.0015330182 0.023404945 0.017454807
get -0.015569325 -0.038791675 0.010044166 -0.006385779 0.0388455 -0.04544924 -0.003399968 -0.019667305 -0.038282152 0.021458613 -0.049457118 0.024846425 -0.03470999 -0.014383598 -0.023992682 0.03486267
will 0.041145045 -0.01122375 -0.05051796 0.029300524 -0.043803833 0.039086424 -0.029297162 0.02243719 0.041760582 0.023424108 -0.0018915813 -0.035532057 -0.053768113 -0.053601228 -0.046698548 0.01842854
do 0.0054873014 -0.05632486 0.025506474 0.01810074 -0.047514696 0.03657545 -0.00032032456 -0.02777722 0.030355746 -0.014140135 0.024379909 0.035158962 0.028204584 0.0029786243 0.012661708 -0.03883291
also -0.006361852 -0.049370203 0.035673715 -0.03180606 0.00578405 0.024461333 -0.010881246 -0.011602872 -0.043840848 0.022863857 -0.00687651 -0.03500956 0.035467044 0.033552922 -0.00067132775 -0.031851858
into -0.041763898 -0.008027413 0.059304573 -0.027453737 0.02732222 0.022895448 -0.049728423 -0.05061612 0.034657042 -0.027507879 -0.027975157 -0.015778752 -0.004332513 -0.0058309967 -0.026782151 0.0065766843
people 0.031092474 0.039502893 0.008998325 0.009709569 -0.031538475 -0.015571387 -0.03687327 -0.03345955 -0.025306586 0.021132002 0.0223028 0.019021055 0.035197534 -0.023884812 -0.024798196 -0.015367931
other -0.023905959 -0.049287748 -0.017106138 0.009377768 -0.0015498877 0.029342774 0.03540045 0.0018722209 -0.013331912 -0.033419862 -0.053263757 0.011485009 -0.02376215 0.01676548 -0.015428976 0.015393688
first -0.03148266 -0.037302252 -0.009714822 -0.02239704 -0.045255262 -0.0505351 -0.035117738 -0.03544799 0.03905275 0.03738131 0.038598757 0.018990995 0.009142023 -0.045607995 0.03959545 0.010332418
great 0.026977036 0.035295703 -0.01866826 0.048275016 -0.023205524 -0.004782943 0.013629118 0.012992567 0.03937502 0.03484797 0.029304583 -0.04557194 -0.005208619 -0.023100818 0.010099816 0.005702106
because -0.0018501171 -0.024163412 -0.021285707 0.042000134 -0.059999026 -0.045439407 0.040683758 -0.025642429 0.028289035 0.016128022 0.032240655 0.05632188 0.03987534 0.0054009305 -0.018430745 0.017373735
how 0.037645582 -0.0151665285 -0.028669111 0.01721568 0.033287168 -0.036272213 0.023295516 0.024839222 0.036908995 0.0083602555 -0.020354865 -0.036667444 0.027072737 0.03897376 0.030219244 0.039320007
him 0.016259193 -0.006927736 0.03205196 -0.013576525 -0.0076617626 -0.048869316 0.01817307 0.047922168 -0.010240105 -0.04188476 0.009476094 -0.025024313 0.027361007 -0.04744612 0.014850296 -0.023928782
most 0.018008227 -0.02658499 -0.022309115 0.016650578 -0.022955688 -0.035359193 -0.026663084 -0.029259091 0.018907407 0.036699366 -0.03281323 0.0009175923 0.0153178265 -0.027988736 0.053048607 0.010738079
don't 0.018193427 0.036234535 -0.025969049 -0.052651796 0.021997085 0.012178503 -0.039335757 -0.040882617 0.014082102 0.0068490827 -0.03926545 0.05159544 -0.03328819 0.0014793404 0.041885365 -0.016700493
made 0.018716285 0.043197665 0.018274488 0.011187579 0.011515968 0.016277257 -0.04126739 -0.042537294 -0.028755378 0.02965861 0.010193328 -0.015860157 0.014035678 -0.010163881 0.033087973 0.02809061
its 0.026904477 -0.036911678 -0.008182985 -0.001084935 0.03163274 0.031077081 -0.0044148946 -0.048691798 0.0011021326 -0.017695827 0.054190032 0.008726637 -0.03577686 -0.018353302 -0.031156864 0.002208588
then -0.026170393 0.013053181 -0.0075749834 -0.018686865 0.03342845 -0.029480241 -0.019694064 -0.04384144 -0.023271699 0.04435293 0.043839294 -0.0029762124 0.0003496558 0.015323895 0.04120219 -0.009605755
way -0.036130182 -0.05106395 -0.040143825 -0.012165557 -0.03898015 0.017463984 -0.02101185 0.0050355145 0.010438656 -0.0059310924 0.017549492 0.0069191735 0.024532262 0.0032818648 0.045548715 0.036630128
make -0.047204617 -0.04187211 -0.02430713 0.022989428 -0.017801551 -0.0484048 -0.04904408 -0.00903187 -0.008770583 -0.043870877 0.012432275 0.010901392 -0.022736138 0.0137778465 -0.013174817 -0.04211424
them 0.029445639 0.040603083 -0.0072759776 -0.004752075 0.0038185904 -0.03818341 -0.020532615 0.020361297 0.020642756 0.037464518 0.04666807 -0.01831154 0.010822952 0.020314358 0.017135344 -0.0022888626
too 0.014664309 0.0030141405 0.021913508 0.034537397 0.029900951 0.009361577 -0.044055536 0.024812195 -0.033608872 0.015574472 0.03472906 0.045850545 0.0130484225 0.019241016 -0.041453328 -0.04565822
could 0.025622075 0.05163947 -0.048690263 0.033810128 -0.040161192 -0.0343668 0.016581848 0.011425049 0.04179085 -0.039659772 -0.013377427 0.033918396 -0.039774995 0.050437808 0.029446363 0.02736124
any -0.045829616 -0.02070522 -0.050563674 0.02164602 0.04158506 0.038684446 0.033549227 0.03157546 -0.020664578 -0.037395116 -0.012532282 -0.04253372 0.05218691 0.030510958 0.027059106 0.047203124
movies -0.05203079 0.05114519 0.028158477 0.037877724 -0.034363262 -0.024206445 -0.0015476488 0.004380003 -0.03621506 0.025782965 -0.04147903 -0.026933141 0.026511526 0.017192548 -5.4854754e-05 -0.013381668
after -0.04913632 0.041004654 -0.011419301 0.02394117 -0.011649195 0.02815684 -0.028084964 0.05029921 0.00810568 -0.03917814 -0.0022868123 -0.023200143 -0.04601973 0.019753449 -0.018257458 0.0032639
think 0.010724939 0.0470525 0.0015430882 0.0017130825 -0.019344468 -0.04088084 0.0032293443 0.042244207 0.023800455 -0.021674683 -0.02732882 -0.023229238 -0.04189192 0.028675731 0.0076473854 0.009889886
characters 0.04477093 0.021577504 -0.03762465 -0.043398555 0.052380122 0.014716929 -0.043364845 0.0022697852 -0.024783911 -0.04315483 -0.010934537 -0.034286056 0.048709106 -0.021466373 -0.013764451 -0.05236121
watch 0.041198257 -0.03266142 0.0076779113 0.015457296 -0.008582881 -0.016550839 0.04097753 0.055418324 0.0056644287 -0.04770203 -0.03876903 0.013230301 0.048550725 -0.02271871 0.042832326 0.018390419
two -0.031025404 0.013514326 0.012030607 -0.038105004 -0.006945271 0.015280308 -0.029532373 0.018638507 0.03221734 -0.020010533 0.034486454 -0.014260562 0.007130929 -0.0031816852 -0.0024428547 0.053141154
films 0.03560561 -0.005672988 0.01254746 0.04499184 0.0064584524 -0.033522405 -0.008361122 -0.0426465 -0.020077832 0.032933194 0.051384576 0.04099198 0.031897873 0.039126944 0.026315672 0.02865343
character -0.039880294 -0.0033823852 0.050069768 0.05025949 0.0034544747 -0.048049264 -0.021114487 -0.024432613 0.041767944 0.011929993 0.03471933 -0.046291985 0.040549923 -0.025908757 0.018381804 0.03300558
seen 0.025838329 0.021483913 0.0103423335 -0.036298927 -0.006160607 -0.03929449 -0.0062211426 -0.033566516 -0.044105444 0.033185035 -0.038538992 -0.045963343 -0.00811697 0.032945715 0.00043167637 -0.04320811
many -0.030594662 0.05075671 -0.028275473 -0.028618803 0.045505203 0.04834229 0.021189362 -0.0150066465 -0.035959203 -0.01181773 0.0090898685 -0.018722977 -0.016762024 -0.037194356 -0.0077691004 -0.031003341
being -0.055514164 -0.04905748 -0.040093172 -0.0144676585 0.028781146 0.011340929 0.027461916 0.023316996 -0.046250768 0.038582765 0.022426872 -0.054034453 0.015760615 0.023388622 -0.01582516 0.038107354
life 0.040276896 0.03842099 -0.029998854 -0.053915072 0.00017589389 0.034999523 -0.0036380512 -0.025370685 0.024343723 -0.016239693 -0.039323717 0.056782894 0.021689774 0.023029814 -0.014457796 -0.012107334
plot 0.02790936 4.965257e-05 -0.0022275117 0.020305157 0.047488376 0.034601323 -0.01685988 0.023897586 0.003451967 0.031948604 0.0010808886 -0.04969013 -0.014317437 0.020316672 -0.050059404 -0.007382873
never 0.0071720523 0.02167245 0.04116328 0.011387347 0.0315595 0.038952045 0.011571442 -0.008342654 -0.012161482 -0.029028114 0.0075001884 0.048429646 0.045664825 0.02708877 -0.00057528063 -0.044633012
acting -0.0044297413 0.02581901 0.04113631 -0.017520059 0.010758083 -0.046818264 0.0065116403 0.03902761 0.04495916 -0.021569183 0.018760856 0.01832042 -0.024395822 -0.00044445216 -0.017455379 -0.04226772
little -0.046631422 -0.015955318 0.036948536 -0.009968206 0.03938961 0.035696585 0.0152438255 -0.019056411 0.042308763 -0.029436583 -0.045427535 -0.03062936 -0.0030912214 0.04816278 -0.009317181 -0.046644565
best 0.03149098 0.030064082 0.05470227 0.006544771 -0.045074996 -0.007058052 -0.008017578 -0.015706785 -0.025333982 0.01332925 0.041510075 0.056574576 -0.018547084 -0.046768047 -0.009954628 -0.0071573537
love -0.018907884 0.037335414 0.025496501 -0.032234486 0.0029789424 -0.018973652 0.04003614 0.020762542 -0.04223202 -0.02016184 0.04510919 0.01083152 -0.025711827 -0.021898754 0.015648311 0.0033429966
over -0.02340812 0.044852287 -0.044952955 0.029412096 0.038424812 0.014287304 -0.031402558 -0.02860354 0.0126624005 -0.0378671 -0.00869585 -0.045578796 0.039339967 0.03646878 0.039419696 -0.029685628
where -0.020054482 0.036148883 0.001122234 0.042518906 0.0017232801 -0.048341513 -0.03383868 -0.0012216327 0.01057115 -0.047557343 0.008026179 -0.0079491455 0.024275914 -0.028023304 0.005890895 -0.043860577
did 0.029208811 -0.014872401 -0.036124427 -0.037175395 -0.032809503 -0.017165976 -0.056902293 0.03825098 -0.020842595 0.044196427 0.047899075 -0.039580546 -0.011533355 0.017031858 0.021194095 -0.047462057
show -0.03775023 -0.010243135 -0.019788757 -0.038699325 -0.037995808 -0.008195432 -0.05067552 -0.048547532 0.03153153 -0.0332232 0.03225973 0.033075325 -0.019792574 0.010963549 0.012218746 0.018092018
know -0.030068511 0.019957649 -0.031080345 0.030948682 -0.026996631 -0.0027380933 -0.026879912 -0.013790672 -0.02430825 0.030067861 -0.002328446 -0.035515085 0.039836105 0.04006645 -0.023671594 0.013914438
off -0.005083351 -0.038072415 -0.041880418 -0.05096775 0.0019851576 -0.031807706 -0.029292203 0.017685462 0.010613658 -0.031117415 0.050282776 -0.013408759 0.021792492 0.045368478 -0.0061342684 0.0036886027
ever 0.04758121 0.03545013 0.0026490088 -0.04986406 0.04330927 -0.008871316 -0.014657269 0.022773087 0.023945948 0.0043462696 0.024801504 0.049673323 -0.03578344 0.028444406 0.0053570624 0.005936819
does -0.014818322 -0.0021970659 -0.018037966 -0.0009127396 0.005323922 0.034295347 -0.05376277 0.048490215 -0.045495827 0.028077645 0.03833726 0.0061266273 0.0046195365 0.025051912 -0.034125634 0.012979088
better -0.022901237 -0.04477266 0.03718204 -0.031267475 -0.039441094 -0.012260054 0.019077314 -0.035177678 0.01741994 0.016977677 -0.025694793 0.03651189 -0.046660054 0.03585252 0.04629285 -0.00281844
your -0.05106368 -0.024163095 -0.04430224 -0.008030879 0.026882837 0.0568775 -0.029361315 -0.011878915 -0.0320577 -0.0073529375 0.0012225376 0.015458691 -0.011470082 0.04664746 -0.0378946 0.020765169
end -0.01751613 0.04986943 -0.04397915 -0.05507557 0.0048175333 -0.03455346 0.0037829264 0.0052392846 -0.0002101538 0.008378918 0.037636682 0.0120245945 -0.02412258 -0.032450918 -0.04548535 0.020691562
still -0.023822583 -0.0015077142 0.0034371084 -0.04658205 0.022627415 -0.02239401 0.030945178 -0.01447639 -0.008800071 -0.047280204 -0.022497667 0.032086436 -0.0339675 -0.025833225 0.00086009 -0.042353004
man 0.01863442 -0.045860168 -0.04629148 0.0024412614 0.007987898 0.008266262 0.053313434 0.014892389 0.00778283 0.030587383 -0.0013829977 -0.030093292 0.054057732 -0.005182851 0.004542503 0.015675476
here 0.019628609 -0.0041534104 0.005292222 0.012281341 0.026477644 0.03983712 0.020028045 -0.04846785 0.0037701416 -0.056344584 0.029223561 -0.020848563 0.037794333 0.041151993 -0.0035611887 0.006469272
these -0.011815497 0.023434004 -0.032466013 -0.009162567 0.060306933 -0.028165983 0.041367784 -0.0073753633 0.00077908026 0.017283881 -0.04750185 0.018056305 0.05541291 -0.04579359 0.023252204 0.023430057
say -0.03277024 0.049822047 0.0070545636 -0.020514527 -0.020752849 0.001897778 0.028053112 0.03689349 -0.0029774345 0.032145616 0.022341326 0.004242149 -0.039121952 -0.018685997 0.042773202 0.03634888
scene -0.04166882 -0.04354478 0.00089112384 -0.046448007 0.035443317 0.0436306 -0.017543811 0.020684145 0.020748813 0.019465776 -0.020682354 0.0076838476 -0.023782926 -0.0061159134 0.03545868 0.045873474
while -0.018209688 -0.011635267 -0.023578664 -0.034846805 -0.02186831 0.054450694 -0.018406548 0.027467852 0.034978956 -0.028111225 -0.046721336 0.008709998 0.031045618 0.021942882 -0.021902138 0.009252034
why -0.03516328 -0.051361047 0.0037986243 0.026326355 -0.02849239 -0.0006770783 0.007971886 -0.022067737 0.037411474 -0.010543479 -0.040471032 0.03293651 -0.032617226 0.049086895 0.028630862 -0.044145335
scenes -0.0028810948 0.045349557 -0.020471465 0.03553151 0.038433205 -0.033509742 -0.011761428 0.02435389 0.016319856 0.0033943716 -0.015974507 -0.034836218 -0.045527805 -0.00635757 -0.025709061 0.026747687
go -0.02105879 -0.023722315 0.035730172 0.033011995 -0.024306675 9.969612e-05 -0.033926986 0.019014986 -0.007190532 -0.045655906 0.0033153822 -0.0064149466 0.042751208 -0.04426558 -0.01273679 -0.043940496
such -0.0007654506 -0.00024551066 -0.029401032 -0.030631613 -0.051768053 -0.031390026 -0.009596511 -0.0305398 0.023928514 -0.02085012 0.040988617 0.030788492 0.0017662268 -0.045427285 0.012735429 0.004982087
something -0.044723954 0.04247461 -0.010159664 -0.044597574 0.01070805 -0.016552111 0.02606277 0.01681086 0.04838096 -0.011992695 -0.033909008 -0.025434284 0.0076715355 -0.020449784 -0.01692146 -0.051856738
through -0.018886898 0.0027566152 -0.025875926 0.017498849 0.04578722 -0.021568563 0.032643512 -0.026689006 -0.059011597 -0.029726293 -0.00473483 -0.016649263 0.009602418 0.0094192065 -0.011299364 0.026205024
should -0.014739674 -0.04251353 -0.043596864 0.029533388 -0.039937925 0.053293604 -0.049281314 -0.0066851317 0.00202834 -0.021738902 0.00068793015 0.04307925 -0.026831416 -0.017603831 -0.03553285 0.022201847
back 0.020399217 0.037994374 0.022782944 -0.032510627 -0.0014048143 0.00683639 0.020969594 -0.0100649735 -0.022525035 -0.007947195 -0.016975822 -0.004210127 0.001134192 -0.027968433 -0.006947376 0.03114972
i'm -0.012823465 -0.0034666567 0.013937614 -0.0008611385 0.030545855 -0.030986466 -0.0005780238 0.045850843 0.020911587 -0.0037809054 0.005866421 0.032445494 0.033954673 0.015739562 -0.0011676822 -0.027137091
real -0.029806245 -0.03303363 -0.0441868 -0.05096463 -0.042874955 0.029901287 0.013723562 0.009984866 0.019076338 0.02122445 -0.0030968487 0.03677071 -0.0043813195 -0.00026592735 -0.002907332 -0.022601435
those 0.0061676106 -0.008055632 -0.0075096283 0.0047075856 -0.0026771778 -0.046669446 -0.031583883 -0.014767449 0.019450368 0.0317537 -0.005409787 -0.023182455 0.03364744 -0.0027305079 -0.015129634 -0.050359435
watching -0.011502852 -0.011013238 -0.016165836 0.04215904 -0.009210998 0.013320328 0.027182048 0.0009098337 -0.030411234 0.05807772 0.051303353 0.0283002 -0.024420837 0.030751916 -0.04011405 -0.037595104
now -0.016654346 0.03110326 0.04041454 0.019293515 -0.009948335 0.055774294 0.020206667 -0.027440805 0.02521684 0.032981955 -0.013940345 -0.030842405 -0.0137984315 0.00044485353 -0.058630425 -0.0089011965
though 0.036612567 -0.03445337 -0.03260309 -0.01810479 -0.046712007 -0.006597918 0.0057970514 -0.00043705894 0.021542901 -0.010815057 -0.008141494 -0.008179073 -0.003603107 0.03010107 -0.019128693 -0.008796685
doesn't -0.03220959 0.0007281795 0.008451925 -0.011887863 0.02988665 0.014611849 0.011786712 -0.04240939 -0.03774208 0.04338842 0.02719436 0.04143193 -0.009370919 0.0022546707 -0.031515382 -0.032736097
years 0.009018068 -0.002133078 -0.012364754 -0.022732366 0.030865764 -0.028920248 0.012531308 0.029174302 0.00042876712 0.020088226 -0.009451691 0.014642516 -0.019181961 -0.02434147 -0.032932926 0.028978711
old 0.03064907 0.025163854 0.008074397 0.012312087 0.011501196 -0.030830802 -0.0015806262 -0.007297818 -0.02210618 0.03564362 0.039218385 -0.012892788 0.027594352 -0.019325027 0.04180284 0.018198963
thing -0.00031678972 0.011306304 0.02415046 -0.039260395 0.028186912 -0.009821183 0.04593066 -0.04374673 -0.0033751014 0.007262222 -0.029460479 0.038765766 -0.027675865 0.010604301 -0.019245526 0.036999617
actors 0.01088542 -0.001704438 0.01039285 0.032920714 0.015019901 -0.034040585 0.038649052 -0.014423483 -0.0359769 0.004779959 0.0453834 -0.036514193 -0.026225079 0.04435591 0.044078413 0.02708126
work -0.027297035 0.01670361 -0.049684368 0.01391804 -0.018033415 -0.016095575 -0.017410021 0.040913254 0.010810255 0.039794497 0.023650222 -0.003419478 -0.03740142 -0.041912578 -0.013162547 -0.0017681569
10 -0.020303274 0.049189705 0.034444775 0.01281245 -0.00054737605 -0.014753709 -0.052500706 0.03453458 -0.037960652 0.0043686614 -0.020369215 -0.03251136 -0.046403375 0.01666115 -0.05818394 -0.022344258
before 0.041512243 0.04292794 0.041557703 0.05857343 0.051094826 0.010782087 -0.0030248836 0.03948302 -0.0085402895 -0.046739783 -0.035459228 0.040718157 -0.010500567 0.03352836 0.03704853 -0.025533045
another 0.021164265 -0.021489354 0.00040099243 -0.042626824 0.03896064 -0.023373712 0.04411913 -0.040286116 -0.04232617 -0.0017148732 0.035356 0.019269807 0.024207823 0.0048946533 -0.016586885 0.013217018
didn't -0.039880835 -0.04417736 -0.03640088 0.041046686 0.022424016 0.040775012 -0.0070448834 0.045417424 -0.035135522 -0.046137847 0.054314993 -0.024300568 0.030254943 -0.032462087 -0.00749918 -0.02931956
new -0.043748353 0.015587073 0.002979267 0.040398262 -0.050389297 -0.010473156 -0.024891684 0.05512872 0.038167614 0.03728032 -0.04687024 0.054897778 0.043185566 -0.027746871 0.034634624 -0.030191109
funny 0.011062388 -0.005750982 -0.043760683 0.019671762 -0.024998628 0.030481365 0.039725147 -0.00071616645 0.01823451 -0.04925719 -0.021607393 0.00037116255 0.029461673 0.018376656 -0.024687365 -0.039621115
nothing -0.005298028 -0.026567273 0.04106295 0.048968617 -0.015508447 0.0009924477 0.00040894127 0.036692426 -0.011881194 -0.020548843 0.048471298 0.018450992 -0.043874063 0.04611059 -0.050939683 -0.047599744
actually -0.0021046884 -0.030400293 -0.024464007 -0.04684269 -0.011252424 -0.022024915 0.030057106 0.048501115 -0.023357643 0.02104299 -0.0022966785 -0.008951451 -0.017214041 0.037848655 -0.045296192 0.03883776
makes 0.031297497 0.025096547 -0.03795917 0.033700474 -0.0388414 -0.052359484 0.042556737 -0.0096861 0.020986347 0.013296847 -0.014394646 -0.020720605 -0.007638698 0.019433228 -0.02512813 0.049558267
director 0.00040562087 -0.006606252 0.03864068 0.016912138 0.02305933 0.013037512 0.03001461 -0.03351796 0.019937051 0.00913956 -0.03458539 -0.028955597 -0.022248486 -0.045466956 0.0057336316 -0.0066241995
look -0.00057393836 0.028669689 0.00041589054 -0.0069411094 -0.054558 -0.04313152 0.033615988 0.020692868 0.034323413 -0.020718893 -0.02652356 -0.040751334 -0.031998623 0.01639636 -0.010957078 0.037770323
find -0.029492173 -0.032620247 -0.033717755 -0.018497244 -0.03735001 0.028226312 0.021587089 -0.0033258325 0.026920097 -0.055655938 -0.027744958 -0.029958343 -0.0099592535 0.043925047 0.038598258 -0.030613419
going -0.014005291 0.0046636565 -0.028372627 -0.036399238 -0.01538154 -0.01743114 -0.0018852953 0.020078694 0.023759926 0.002750473 0.06475642 -0.025512017 0.04245798 -0.031877022 0.054032553 0.027578933
few 0.052627936 -0.024154307 0.05331788 -0.047814313 -0.048265364 -0.0043064 0.0140197305 0.049844716 0.045132913 0.017802471 0.03404091 -0.0312797 0.034843687 0.032937195 -0.006608213 -0.008450522
same -0.0023971917 0.015690286 -0.014542872 0.001188593 -0.044956505 -0.008090617 0.0024109168 0.025445139 0.030577485 0.010447071 0.031860963 -0.009429094 0.033992205 -0.0125923455 0.03510509 -0.018980537
part 0.00777722 0.051102154 -0.036636107 -0.03700299 0.029566353 0.051100772 0.055201445 -0.005261426 0.0015498328 -0.042221546 -0.031381506 -0.013792761 0.005606607 0.041722264 -0.04766227 0.00037090882
again -0.03842153 0.04420204 0.005892712 -0.0116022425 0.0407425 -0.017198121 0.044963636 0.023152852 -0.015509628 0.027027672 -0.00096109573 -0.033185974 0.03598618 0.006721326 -0.015988968 0.022786038
every 0.03768665 -0.039165948 -0.038649183 -0.040011153 -0.025605936 0.038595602 -0.009875575 -0.008275768 -0.03800197 -0.041118987 -0.041693646 -0.038702156 0.009749346 0.006505196 0.020786447 -0.056149166
lot -0.033449933 -0.015473287 -0.024857616 0.024882162 -0.03194677 -0.013611621 -0.023269823 0.011283982 0.048940398 0.01796518 -0.012641709 0.028470187 0.0024155483 0.048381142 0.0023816898 -0.03436108
cast 0.017606828 -0.008602068 -0.037013154 -0.01061601 -0.026258184 0.035270695 -0.04415107 -0.030999707 -0.0010832861 0.043816973 0.0074586174 0.04916404 0.005807846 0.047764942 -0.026083503 -0.009993299
us -0.033146568 -0.032960657 0.019138614 -0.010582729 0.032687176 -0.028823616 -0.027232198 0.039546404 0.04981938 -0.027243309 0.006607314 -0.02747839 0.01480287 0.03192416 0.047459237 -0.009947558
quite 0.038230702 -0.010616328 0.043872852 0.054469552 0.007288984 -0.037363358 0.00724759 -0.046201132 0.039281473 -0.03574786 -0.030903833 -0.0381609 -0.04813919 0.03354577 -0.042117532 0.045758262
down -0.015282558 -0.03110228 -0.00026650415 -0.013581884 -0.048862886 0.016115373 0.026286323 0.0390985 0.021318218 0.041397855 0.01706254 0.03803207 -0.014517538 7.221541e-05 0.0005140436 0.026753692
want -0.0015823654 -0.006399462 -0.034205057 0.033247225 0.028320905 0.043203555 -0.029618701 0.007318086 -0.047595147 0.022802712 -0.024995442 -0.028387498 -0.02939273 0.025791712 0.0048248633 -0.01732938
world -0.04124057 0.0017898628 0.052638955 -0.025761353 -0.013087249 0.026954008 -0.024444582 -0.02055348 -0.03194449 0.046740033 0.031174606 0.019062502 -0.046164185 0.015715735 0.029303985 -0.020074382
things 0.044810925 -0.013034775 0.04286049 0.029687336 -0.01722747 -0.039460912 -0.013899924 -0.021327013 0.034687404 -0.024290083 0.053390432 0.001989236 0.0021871075 0.033021465 -0.03713235 -0.03054622
pretty -0.025301188 0.004094417 0.05273108 0.045101605 -0.049971882 -0.008307344 -0.039000463 -0.053385977 0.00018988972 0.012033579 0.009593027 -0.023246733 0.0037907823 -0.014045326 0.01068553 -0.042161446
young -0.03283329 -0.043815333 -0.022585569 -0.02777027 0.021969106 -0.056619868 -0.039418705 0.03817164 -0.03734024 -0.005611337 -0.03967453 -0.01016751 -0.010180955 0.043313097 -0.0047517936 -0.0046424717
seems 0.0047891797 0.009156587 0.036590625 0.046381395 -0.03719522 -0.005319952 0.051018715 -0.03411847 -0.010534962 0.015330929 0.005974589 -0.042487286 -0.023709133 0.031895082 0.034847483 0.050589014
around -0.014487833 0.015148416 0.008436433 -0.036569484 -0.022156753 0.0028632788 0.03943001 0.037750904 -0.028666565 -0.024852267 -0.009064809 0.026705233 0.045543984 0.021397004 -0.017459314 -0.034086328
got 0.05226057 0.025720026 -0.03016453 -0.02470474 -0.001419456 0.02394702 0.030128112 0.043869656 -0.0017208765 -0.0038234647 0.028184393 0.02626798 -0.032098163 0.040220544 -0.0055886055 0.020732772
horror -0.01779104 0.05014495 -0.044348024 0.007215484 0.050586544 0.017314207 -0.02705178 -0.047337387 -0.03361579 0.050547495 0.030466203 0.0066082673 -0.013375002 -0.014211781 0.028842494 0.029513529
however 0.024001816 -0.03667514 -0.018767374 -0.004960422 -0.006674282 -0.0072897384 -0.016485656 -0.030300489 0.032692414 0.010939557 -0.011730438 -0.015650354 -0.007290258 0.014385157 -0.026967362 -0.03406194
can't 0.011149752 0.033676535 -0.018818855 -0.041108932 -0.0064167143 -0.026449343 0.0116795385 -0.035495233 -0.013302339 0.025993228 -0.017804317 0.00079451135 -0.009754694 0.0017535677 0.024282558 -0.0134918345
fact 0.044253264 -0.010643874 -0.0372972 -0.010617641 0.02356652 -0.024590053 0.011941558 0.01886737 0.013606859 -0.00199008 0.014290951 -0.024236597 -0.015489465 0.014276636 -0.050242603 -0.01157468
take -0.048742816 0.013028153 0.049599938 0.013438741 -0.00052865106 -0.03287627 -0.025717532 -0.019354064 0.00025153634 -0.017007452 -0.029571982 -0.034502428 -0.023568124 0.038161132 0.029484933 -0.0077102105
big -0.012405445 -0.02174605 -0.035112593 0.018683692 -0.02820488 -0.019044707 -0.0059405975 0.009733578 0.032241445 -0.012749188 -0.012042007 0.02654322 -0.033484887 0.016106453 -0.044234246 0.011386533
enough 0.001591264 0.043134328 0.00061074283 -0.012361114 0.043914843 -0.00187943 0.032339334 -0.04016863 0.011196466 -0.014107871 0.034942366 -0.0143265305 -0.025187392 0.036058743 -0.0012031457 0.055123825
long 0.033741973 0.04156605 -0.03464967 -0.053584892 -0.013837528 -0.016657002 0.046298698 0.008766145 0.040975653 -0.03655125 0.04285378 0.04045547 0.034495216 0.028899688 -0.030131662 0.0139318835
thought 0.04530449 0.048107408 0.040690474 0.030446539 0.03783952 0.018015973 0.024057068 -0.015907696 0.01826858 -0.014533367 -0.0008205006 0.0147488015 0.04521559 0.029054139 -0.039666794 0.02737241
that's -0.0016088145 0.017957114 -0.04089542 -0.02830136 -0.04445562 0.0024438456 0.006294043 -0.007262946 0.036481112 0.03258344 0.034839503 0.008228784 -0.028202936 0.018089997 0.03121479 -0.04304068
both 0.038336758 -0.023589298 0.0029639965 -0.004401315 0.021669345 -0.009730401 -0.019713897 0.0065744 0.03478874 0.04396675 -0.049162958 -0.012944916 0.016456923 0.015930332 -0.04649422 -0.040420525
between -0.015022043 0.023706278 0.030445367 0.02871829 -0.0051369895 -0.048000753 -0.027485393 -0.042422723 -0.05288304 -0.0009371278 -0.03596516 -0.038555227 -0.009817482 -0.031080248 0.0017271468 -0.034526277
series -0.020373417 0.041381437 0.04332711 0.045095317 -0.057050288 0.019194636 -0.045935337 -0.044610854 -0.030695105 0.02894636 -0.042857245 -0.019928375 0.0063928077 0.014184179 -0.016633991 -0.030304398
give 0.006586734 0.007261133 0.007918099 0.02996462 -0.003911991 -0.051151168 -0.053802285 0.016284147 -0.024906911 -0.008144612 -0.025078641 0.006420309 0.016573476 -0.009945072 -0.0380932 0.003202295
may 0.014115484 0.014748116 -0.009924304 -0.015002707 -0.015937716 0.0027058772 0.035574187 0.00081384304 0.052868366 -0.039133627 -0.008869134 0.0046682516 0.017022965 -0.017455392 -0.011194174 -0.044549257
original -0.036639523 -0.027302431 0.025507864 -0.009584122 -0.051969383 0.041093864 0.04167143 -0.029188588 0.051923238 0.000110660265 0.014820086 0.04003793 -0.026063992 -0.048873622 0.049545817 0.010616094
own 0.04729645 -0.008891123 -0.025516272 -0.060684595 0.026619006 0.02514328 -0.009036709 -0.005229093 -0.00549639 0.034697287 -0.022202808 -0.017145224 0.005954145 0.04601951 0.039537597 -0.039659537
action 0.037515063 0.040947463 0.031400967 -0.015966462 -0.027603226 -0.024347752 -0.03610445 -0.023029422 0.013576323 0.041102305 -0.010020456 -0.042583633 0.016262937 0.054805115 -0.021323638 0.019523486
i've 0.022377962 -0.033069897 -0.01585532 -0.04449323 0.0020297766 0.0011000463 0.017046394 0.009166671 -0.009372166 -0.030190531 0.0144507745 -0.0105244545 -0.019988423 -0.0347832 -0.04094894 0.0021588493
right -0.012384155 -0.0014066367 0.049450774 -0.007196528 0.037728436 -0.0138904415 0.0019879474 0.018569693 0.03948562 0.030326996 -0.038560536 0.048264895 -0.03874793 0.015193032 -0.02424552 -0.02381227
without -0.028625242 -0.011495115 0.029156806 0.008520611 0.03744048 -0.014344838 -0.022796663 -0.019959763 0.023571743 -0.041516162 -0.021042835 -0.0042294967 -0.03523045 0.052096423 0.010978447 -0.02214685
always 0.033881698 0.025394063 0.026845908 0.0026999726 -0.037240177 0.01611776 0.015830247 -0.009984649 -0.03662431 0.017420119 -0.02700667 0.0032260022 -0.033402648 -0.016860425 -0.037401445 0.018546786
times -0.01686568 0.049661707 -0.005332397 0.042190835 0.038614437 0.00047346912 0.0067232163 -0.009515612 -0.045177847 -0.0088452445 -0.04092043 0.0045371493 0.0019373517 -0.041260388 0.008653923 0.0016281799
comedy -0.03486207 0.04787841 -0.04162488 -0.057797372 -0.04039136 -0.023670007 -0.04127515 0.057932008 0.038139142 -0.032206982 -0.0051133945 0.02338888 -0.018317172 0.025628623 0.039995927 -0.050539114
point 0.04981587 0.014063238 -0.030821137 0.023917222 -0.04127536 0.029608062 0.0144215925 0.001413777 -0.019039705 0.009727136 0.0123890275 0.016503217 -0.007837387 -0.011658893 -0.000317268 -0.017722376
gets 0.009684514 0.03328733 -0.04476986 -0.00059207017 0.0048016584 -0.029039575 0.034006115 0.018350754 -0.04816185 0.025237529 -0.026211524 0.014924146 0.0060113156 0.057644732 -0.05341867 -0.015910713
must 0.0012506805 0.029171687 0.022654941 0.030677473 -0.010436945 -0.04152305 0.028569343 -0.029056983 -0.0051990217 0.012950379 -0.024842173 -0.037908293 0.014495735 0.024995051 0.040794525 0.014486617
come -0.022329735 -0.004067362 0.032678835 0.027187824 0.015993489 -0.011197223 0.045723572 -0.047648888 0.03358506 -0.037399225 0.0073290775 0.03264701 0.01991522 -0.029935163 0.045140244 -0.02711479
role 0.060662027 0.026835192 0.039955635 -0.028426846 -0.010292644 -0.0521895 0.02231981 0.018258652 -0.037510175 0.05020216 0.018431934 0.02536135 0.0024235912 -0.009125645 0.036454108 -0.0396993
isn't 0.026470443 0.039030112 0.022217052 -0.050773762 -0.041328244 0.00034449206 0.035381507 -0.009036466 -0.017028732 -0.00075981923 -0.02669356 0.047823384 -0.025013352 0.00037264163 -0.010893966 0.00437741
saw -0.03156122 0.040105645 -0.006896291 0.0017828657 -0.038527895 -0.0065680156 0.031284697 0.02100108 0.01919464 -0.032167587 -0.032285485 0.02044675 -0.022669895 0.02789981 -0.027878998 -0.038344175
almost 0.055103894 0.013961475 -0.0025664517 0.005741547 -0.03967292 -0.035267327 -0.028454466 -0.022260597 0.009840249 0.050854407 -0.040699176 0.047792595 -0.010985735 -0.0393278 0.052076813 -0.053616904
interesting -0.033528075 0.042375658 -0.021322686 -0.04774985 -0.0390124 0.02377726 0.0028566394 0.0010521491 -0.034472004 0.036121085 0.038754262 0.051715344 0.05099477 0.008282194 -4.188983e-05 -0.008893664
least -0.025095483 -0.03410232 -0.012462378 -0.042841453 0.04104689 -0.015569495 -0.03732817 0.04694029 0.046454255 -0.0053497707 0.0054510045 0.043419 -0.01433689 -0.018645447 0.051262945 0.029123517
family -0.009030098 -0.03354213 -0.0050320392 -0.0044363043 0.0058689937 -0.00783572 0.044380732 0.0060077286 0.037826005 0.026308052 -0.013402537 -0.024253232 0.029459625 -0.0013178478 -0.036405507 0.032356028
done 0.0096818255 0.03679887 -0.03939469 -0.025953311 -0.019070918 0.021154903 -0.0347516 -0.026416464 -0.049430538 -0.037343506 0.03677882 -0.03474839 -0.006388763 -0.011785609 -0.015453408 -0.037731644
there's -0.026461894 0.023860212 -0.0567466 0.020950435 0.012808064 0.032898244 -0.019189816 0.013426371 0.01689322 0.024344053 0.021012554 -0.0046564094 0.024120718 0.051918536 -0.044262208 0.029236898
whole 0.013530909 -0.0031849 -0.018800035 0.011961237 -0.015794212 -0.01964233 0.027939092 0.026595308 -0.038867433 0.0048345253 -0.031779453 0.04085179 -0.037420567 0.0438892 -0.0114188725 -0.023261625
bit 0.020146767 -0.044807546 -0.037117526 0.0011013985 0.017484736 -0.021772385 -0.046945877 -0.026363606 -0.03830383 -0.02283944 -0.012163083 0.039282877 -0.0056315074 0.012419683 -0.033356547 0.017086657
music -0.024065396 0.042807102 -0.021922037 0.01343224 0.023411676 0.03451199 0.025748972 0.038654983 -0.008307936 0.014310165 0.035980776 0.019112112 0.008949925 -0.009994834 -0.012958521 -0.0017860073
script -0.029241888 0.006314015 -0.031239936 0.007542682 0.03461267 0.05087854 0.0058276406 -0.021684257 0.031941757 -0.0020736093 0.032053217 -0.027250713 -0.032592755 -0.04718472 0.0075465334 0.0008211713
far -0.037544116 0.04749386 0.015581481 0.0093010375 0.050628413 0.024823662 0.027048789 -0.035888977 -0.052408826 -0.0050482824 -0.021311054 0.014676693 0.040491182 -0.0071595404 0.010649249 0.009106976
making 0.0007804142 -0.026485132 0.0063919392 -0.021572342 -0.02462178 -0.030753555 0.014928578 0.01489974 -0.0071705817 -0.014109409 0.033624638 -0.035629764 0.011307806 -0.017415818 -0.031046148 0.038913283
guy -0.021787535 -0.036940206 0.0053128605 0.030440863 -0.029593047 -0.051329415 -0.03886297 -0.03987159 -0.032041036 -0.007371161 0.0070576943 0.02641313 0.027102707 -0.019917533 0.0037630927 0.00307795
anything -0.04149293 -0.036383808 0.023470433 -0.01657323 0.008593238 -0.041675005 0.022821395 -0.02220604 0.06560181 -0.0024572315 -0.05290305 -0.023325581 0.024740066 -0.033324208 -0.016345397 -0.008760894
minutes 0.041486915 0.02178474 0.024131825 0.044554453 0.015487475 -0.00476388 0.00036020987 -0.0037670392 0.020695936 0.010162545 -0.0070217587 0.003316087 0.006375614 0.019676128 -0.011123487 0.04828255
feel -0.0121487565 0.01623475 0.032512635 0.020775482 0.04101708 -0.00775204 0.0539525 0.04101695 0.026907772 0.0342082 -0.020386908 0.018528353 -0.006518599 -0.04716524 -0.02729526 -0.027333193
last -0.022126338 -0.025201172 -0.029897043 0.05111289 0.009523202 -0.030912325 -0.037849847 -0.049830098 -0.00021200371 0.023686988 0.03977339 -0.005649437 0.008665506 -0.0013460869 -0.05097537 -0.027829356
since 0.031173678 0.036028687 0.05551967 -0.006719307 0.025663473 -0.05485021 -0.02411752 0.025974246 0.057083257 -0.015016858 -0.034004763 -0.0062165027 0.03950384 -0.036483303 0.055041168 -0.025983805
might 0.00813216 -0.004175069 0.036843196 -0.0018626094 0.032621462 0.0033019425 -0.047576718 0.031876475 0.016140774 -0.048066147 0.027560543 -0.009402607 0.016292786 -0.037391286 0.035175752 -0.04283033
performance -0.029298581 0.00536721 -0.04750729 -0.0013322391 0.022074068 -0.03719117 -0.023154104 0.0022400052 0.017638927 -0.036177944 0.026057452 0.0016580053 -0.04396215 -0.033705655 0.027618863 0.047455203
he's -0.0046053696 -0.027724106 0.015262727 0.048029527 -0.03705003 0.027913192 0.018412525 0.0181471 -0.007395029 0.023171118 0.03471868 -0.0009264937 0.044167463 0.03660861 -0.0115049165 -0.0062231603
2 0.012733274 0.0036157852 -0.04160036 -0.027789729 0.010956984 -0.021393476 0.044499658 -0.033233248 -0.00656906 0.012430286 0.014395416 -0.021778846 0.0005105374 0.054781772 -0.04571564 0.030753518
probably 0.017498992 -0.0209431 -0.0017000885 -0.03194123 -0.023373866 0.0397384 -0.034653917 -0.054955635 0.0060910597 -0.026042378 -0.027185852 0.049453147 0.0059925965 -0.013851432 0.008267612 -0.03953255
kind -0.0066015096 -0.032200538 -0.04391099 0.04443121 0.051330157 -0.028370017 -0.007169597 0.009128979 -0.037433542 0.0059880675 0.04930091 -0.02076888 -0.02298311 0.0036806273 -0.05145806 0.028121825
am -0.0111645935 0.023013277 -0.041645736 0.03610519 -0.029876495 -0.023771416 -0.005353321 -0.0094721345 -0.004054196 0.044781983 0.014088356 0.017081626 0.038563333 -0.01888995 0.028344719 0.045703232
away 0.037060097 -0.032559495 0.005361382 -0.0030769974 -0.0085466 0.021382565 0.0042298967 -0.031761996 -0.033707492 -0.052670702 0.021840256 0.042148482 -0.010255977 0.013910578 -0.042199448 -0.024126654
yet -0.043621544 0.025160335 0.015482293 -0.034966223 0.028915823 0.0069679236 0.06074869 -0.0045961067 -0.023683602 0.012750098 0.03092342 0.04176144 -0.012242552 -0.004253133 0.016737772 -0.0012860775
rather -0.0044660764 -0.048190184 -0.024162557 -0.042764027 -0.039342668 0.014461042 -0.023833029 0.045576047 -0.03584847 -0.0046656784 0.015422446 0.029617239 -0.028925356 -0.038770366 -0.032480698 -0.027419066
tv -0.016102653 0.013255406 -0.022688618 -0.0038087445 0.020297242 -0.03653975 0.0077681155 0.045913927 0.008244597 0.005094813 0.0028444598 0.029313326 0.019297987 -0.0030240878 0.005388764 -0.047005367
worst 0.051953223 -0.014952201 0.004028935 -0.058636375 -0.006855821 -0.03768346 -0.04387198 0.0061512548 -0.04167682 0.009596765 0.017927222 -0.033681713 0.017264357 -0.04545811 -0.019019485 0.00013010738
girl -0.036211204 -0.027856704 0.013489224 0.05797346 0.04850956 0.033560764 0.038438242 -0.012360456 -0.023504527 -0.0019383694 0.03700791 0.0009208865 0.019980876 0.053743277 0.022882463 0.009973873
day 0.036655426 0.03507498 0.051491898 0.027758757 -0.012594381 -0.003172025 -0.0026368094 -0.042254943 -0.0077672726 -0.021949993 0.0016417503 -0.022973122 -0.025329143 -0.036537174 0.034193028 -0.023643542
sure 0.043195233 -0.00664644 0.01790652 -0.031336024 0.012257178 -0.038982358 0.02791036 0.043464113 0.022974694 0.036421876 -0.02436152 0.04229303 -0.015855132 -0.037996937 -0.02958888 0.02234974
fun -0.03228483 0.025663177 0.012075696 -0.01878436 -0.009555548 0.024867589 -0.008345413 0.020962823 0.008708411 -0.02340894 0.015314774 0.02173223 -0.06039301 -0.025583329 -0.03589936 0.05529031
hard -0.025709055 0.0061669284 0.045210183 -0.0018197035 0.0086343605 0.016744146 0.0055684703 0.049194105 -0.024145007 0.05139712 0.014543521 0.046435487 0.041902125 -0.03473187 -0.007464463 0.018740848
woman 0.04998274 -0.019214133 -0.038942613 0.021934595 0.019583588 0.029056394 0.03426095 -0.010561671 0.00062333175 -0.012325952 0.012293271 0.030852174 0.0032923312 0.0515966 -0.020976126 -0.05371598
played -0.004749885 -0.01882161 0.045022644 -0.029675346 -0.034774743 -0.047560766 0.030514896 -0.03205217 -0.0013921491 0.009074067 0.051073495 -0.038804393 -0.0070023574 -0.0010055674 0.031315476 -0.021676082
each 0.020285849 0.045124214 0.014503716 -0.01704372 -0.004221736 -0.02439917 -0.030821819 0.023666406 0.0072511174 -0.031607665 -0.039656304 -0.033207517 -0.018952226 -0.0068724765 -0.044611495 -0.05194311
found 0.028138336 0.0024615698 -0.008211775 0.0040669744 0.007854991 0.0069264406 0.03134105 0.039851077 0.019196143 -0.031958878 0.02335928 -0.031190202 0.0068139583 -0.034941617 -0.0488674 -0.02749135
anyone -0.011632083 0.0034578964 -0.055207714 0.01494571 0.029834183 0.026204104 0.010780415 -0.028059375 0.039122373 0.05213014 -0.041856084 -0.026803276 0.024650527 -0.033536196 0.030783642 0.016949188
having -0.037887167 -0.032585688 0.010971769 0.013708032 0.032286722 -0.023665167 -0.03128475 -0.029074281 0.008916705 0.013558208 0.03693951 -0.041498095 0.0030734309 -0.008097716 -0.009574462 -0.04094144
although 0.005394347 0.014482113 0.024499977 -0.045780603 -0.013550184 -0.00043290065 -0.0002312518 0.022059932 0.043124337 -0.032018278 -0.021083059 0.028333815 -0.017872782 -0.0057834457 -0.04216964 -0.014002418
especially -0.017038988 -0.0027796065 -0.0013094257 -0.012490309 0.034796063 0.008362968 -0.028829163 -0.04272959 0.016124843 0.015449938 -0.04055301 -0.020605087 -0.0018202031 -0.040708628 -0.0077649886 0.03182891
our 0.017598752 -0.031818137 0.0042197295 0.01801657 0.008272303 -0.006234781 -0.007732441 -0.0388171 0.034982286 0.0021438904 -0.013837866 0.00891657 -0.036900222 -0.034395542 -0.037167702 -0.0069586816
believe 0.004549638 -0.030138414 -0.02301739 0.05096866 -0.042276286 -0.013137764 0.0462059 0.046620738 -0.034102812 0.007633946 0.017806184 0.030447088 0.018596832 -0.03380146 -0.050536033 0.0009856083
course 0.019150171 -0.03676236 -0.03199294 0.0162437 0.044496458 -0.046468023 -0.04381217 -0.056541003 -0.04701117 -0.034705903 -0.027015317 -0.017384013 -0.044387683 0.019914588 0.0034045104 -0.020337759
comes 0.04278354 -0.012586245 0.027253963 0.03397687 -0.019513402 0.0081957765 0.062308524 -0.02737472 -0.062724225 -0.0015604764 -0.006135231 -0.06232294 0.01694495 0.0076473444 -0.014662442 -0.0019441352
looking -0.04262508 0.034288954 -0.024014613 -0.035767864 0.0015489494 -0.039143037 -0.0325058 0.018392457 -0.020753395 -0.030874545 0.02293166 0.051025517 -0.03027553 -0.011263313 -0.012384912 -0.031876422
screen -0.013744279 0.028174892 -0.045600787 0.017086932 0.048093304 0.004764938 0.015794536 0.036316782 0.0076818955 -0.044895004 -0.033071842 0.03050477 0.03212332 -0.009118987 0.031393073 0.023803229
trying 0.026625928 0.01041084 0.01857409 6.563877e-05 -0.012128361 0.02913965 -0.034418777 0.043414377 0.0541531 -0.0073938994 -0.012297609 -0.005194149 0.01072283 -0.036295444 -0.035352103 0.0048249015
set 0.012414775 0.020378256 0.03558894 0.023372132 -0.035858802 0.004258104 0.011218632 0.04695924 0.0027746796 0.03041237 0.018436937 0.014453275 -0.039810497 -0.023684345 -0.023884226 -0.013326464
goes -0.0133475065 0.03618867 -0.010286054 0.0008815859 0.010689143 0.006582815 0.051296096 -0.031976093 -0.05596667 -0.0219798 0.048673782 -0.0042827013 -0.013252106 0.024994256 0.039465856 -0.0485249
looks -0.005576252 -0.009741408 -0.03955059 -0.024239277 0.008958983 -0.00046149513 1.9633795e-05 0.007896372 0.0057136863 0.009045023 0.03999548 0.03143585 -0.0046248618 -0.014251763 -0.0022947984 0.032932866
place 0.033803042 0.04789213 -0.010791698 -0.04319033 0.02568944 0.040838107 -0.04264538 0.016700547 0.03269823 0.024873575 0.0033701288 -0.027542496 0.04918129 -0.023146838 0.042231884 -0.013592891
book 0.037801716 0.040107664 -0.02029757 0.006945962 -0.0071528554 -0.01302605 -0.04265687 0.04461365 -0.010988401 0.02267423 -0.0029736701 0.050706368 0.015802054 -0.014158019 -0.038356453 0.007750925
different 0.04454058 0.031937357 -0.03701734 -0.014787299 -0.005839508 0.026095195 0.024810037 -0.037038736 -0.008402234 -0.04724377 0.04542037 -0.0038733915 0.04349172 -0.031988755 -0.0451181 -0.00019593432
put 0.057635292 0.0010692951 0.02470246 0.012921011 -0.041978106 -0.033691764 0.043205675 0.04120927 -0.02641765 0.038759872 -0.04326542 -0.024889205 -0.0015936691 0.018064642 -0.009948809 0.0059725814
ending -0.0017048499 -0.017379731 -0.02888896 -0.0013495386 0.004058903 0.033145983 -0.037931062 -0.0024433995 0.019114267 -0.038757678 -0.029574253 -0.006535518 0.03586076 -0.0032202832 -0.0061483397 -0.01585022
money 0.033046193 -0.0017068242 0.035821654 -0.022079736 0.012788653 -0.010568413 -0.025529511 -0.04120971 -0.034219228 0.0119137755 -0.0018965137 -0.013488238 -0.0017531398 -0.003070451 -0.030499337 -0.018456876
maybe -0.00889882 0.027222412 0.03852028 -0.037252594 0.049212385 -0.016875573 -0.008117064 -0.027118618 -0.025739407 0.019642936 0.0032678063 0.009555733 -0.01186441 0.04543049 -0.03917276 -0.038560163
once 0.038940985 0.026695797 -0.0027270666 0.038877293 -0.025931256 0.014439502 -0.055948596 -0.042029012 0.014811487 -0.013746097 -0.030027436 0.0002314736 0.021281164 0.02085318 0.026673667 -0.042613145
sense 0.0350043 -0.034236696 -0.00012434006 -0.04849829 0.018841365 0.016567038 -0.034578912 0.04538494 -0.04762209 -0.022603171 0.025871009 -0.028865214 0.029728975 -0.0046195826 0.04114409 0.013460419
reason 0.017581908 -0.010878761 -0.007013352 0.028973643 -0.0068485434 0.01000075 -0.024026897 0.0019303149 0.005750502 0.026764425 -0.038875837 -0.05017243 0.027417986 0.0155083705 0.03612509 0.026228242
true -0.030089024 -0.039172135 -0.0089213895 -0.0143629955 -0.009030384 -0.027872136 -0.028856229 -0.034504946 0.022617651 -0.043879088 0.01984329 0.03181007 -0.038011543 0.03365108 -0.006454001 -0.0357157
actor -0.029682685 0.0109962 0.00045554334 -0.02471087 0.007104918 0.049242802 0.035146482 0.0001360317 -0.0052657896 0.013619772 -0.0006152911 -0.010969245 0.03195062 -0.022075342 -0.0027565686 0.0046438193
everything 0.05083457 -0.04534283 0.010667974 0.009381721 0.052728284 -0.003986461 -0.016705286 0.045277245 -0.0286564 -0.004855473 0.0082823215 -0.004533424 0.016943315 0.046981316 -0.0101756 0.041227352
wasn't -0.016291369 -0.0035057226 0.0055985805 -0.0076364595 0.0033017527 0.026084559 -0.037192952 -0.021822002 0.0012637657 -0.035845485 -0.046506394 0.014950097 0.032777388 0.022401206 -0.002261489 -0.028302003
shows -0.030826617 0.04834407 -0.029624281 -0.023627773 -0.014991469 -0.013790472 -0.04817447 0.027593818 0.04868401 0.03561317 0.03426842 0.044751514 0.0424743 -0.0006216404 0.048198454 0.0030473594
dvd 0.0368368 0.039941676 -0.008828466 -0.041527458 0.0072427685 0.0019264565 0.00086422643 0.0057230345 0.008160847 -0.03115027 -0.045383114 -0.018068247 -0.038925137 -0.039677702 -0.0065055504 0.019783322
three -0.023435503 -0.027445259 0.007984413 -0.021590203 0.0025051238 -0.0035725546 -0.019118642 0.022693235 -0.002674196 -0.003910431 0.028123189 0.032756515 0.02091712 -0.03378387 0.011606048 0.015799202
worth 0.041741922 0.02890014 -0.029768161 -0.060147222 -0.04917874 -0.00826004 -0.024794318 0.0008912776 -0.03677739 0.024885714 -0.025680302 0.03754572 -0.023533864 -0.041116882 -0.021338008 -0.03761224
year 0.05099706 -0.00807008 0.047772083 0.04000451 -0.022850642 -0.043590885 -0.035835575 0.028214606 -0.0117089795 -0.0127310725 -0.039337423 -0.019419415 0.019892935 -0.008479081 0.05755418 -0.047287002
job -0.04515202 -0.01905638 -0.007928 0.021302853 -0.048621226 -0.004564293 0.0038437864 0.005295265 0.028719813 -0.0058755884 0.043459065 -0.021876791 0.0014765727 0.008019102 0.005815661 -0.008654176
main 0.02581229 -0.03335601 0.035050336 -0.024654336 -0.044856504 0.006957781 -0.040673085 0.04097982 0.029046897 -0.033695035 0.0027566142 0.026232641 0.00924702 0.007955096 0.0064245323 -0.052694283
someone -0.046258662 -0.015716063 -0.022270055 -0.027421739 0.050596498 -0.022481117 -0.037648495 -0.03228486 -0.062506504 -0.022437835 -0.05165101 -0.03543451 0.057783324 0.034074817 -0.008203041 0.01110688
together 0.016914368 0.030313082 -0.018148808 0.052985724 -0.031924546 0.0055610104 0.013804522 -0.032219216 -0.021341246 -0.023842713 0.049684066 -0.0060254093 0.03957297 0.028974691 -0.049382497 0.0029229186
watched 0.0067804256 0.034100197 -0.024679799 0.04429398 0.025665632 0.018935928 0.038261954 0.021827094 -0.019041123 -0.010415035 -0.04427417 -0.00034796947 0.018031094 -0.024678731 0.030789284 -0.02709162
play -0.03669754 0.04568222 -0.009392958 0.006581145 -0.024324961 -0.014637226 -0.030057924 0.015245029 -0.03313483 0.012270923 0.043530386 -0.043538943 0.010581252 -0.052613366 0.042349197 -0.028715855
american -0.033457447 -0.051530693 0.03972972 -0.027169935 -0.026392648 0.0035990989 -0.041768845 -0.047300227 -0.014887647 0.035965916 -0.01330517 0.021637438 0.04319274 0.022970622 0.033653338 0.010488708
plays 0.008001726 0.021723025 0.01962532 0.02840324 0.029152479 -0.03181618 0.028325591 0.030964192 -0.04779576 0.048139796 -0.0028532685 0.014656396 0.0018754987 0.009104893 -0.034419317 -0.02060876
1 -0.037656218 -0.0045528007 -0.0055808355 -0.029381456 0.0244217 0.00031053834 0.041117903 -0.033646297 0.018695561 0.026993515 0.017270062 -0.05365189 -0.0060832878 0.057290066 -0.044880375 -0.02592172
said 0.040776204 0.0073615136 0.03307529 0.020559696 -0.028124051 -0.011968592 0.043488085 0.056853287 -0.04399304 -0.002306981 0.03472593 -0.018472103 -0.02619966 0.037125412 0.040607315 0.024860464
effects 0.01843351 -0.0030539434 0.022637153 -0.02517009 0.0243933 0.001745064 -0.01989396 0.04181772 -0.04105632 0.037667762 -0.003016203 0.028900692 -0.003426708 0.02156191 -0.02824071 -0.011826472
later 0.02007853 0.03993476 0.029456701 0.04057309 -0.034829926 -0.025144508 0.043909654 0.060082447 0.0130750425 0.033582006 0.026138367 0.00679015 0.00015373813 0.015938235 -0.047379464 -0.051195554
takes -0.03848646 0.03598824 0.0019046067 -0.019660898 -0.028959233 0.039450034 -0.025288768 -0.0074812197 -0.042560816 -0.04262528 -0.035137296 0.011567192 -0.032143325 -0.01197751 -0.008033848 -0.058229685
instead -0.05151326 -0.0072680083 -0.029098082 -0.055782977 -0.058839288 -0.040019244 -0.057095703 -0.025803598 -0.029557941 -0.005102838 0.046504825 0.018815864 -0.05189118 -0.051999085 0.037924152 0.03452123
seem -0.009459558 -0.0058100126 -0.021597851 0.020443818 0.020641282 0.028582081 -0.04617582 -0.010421853 -0.0066582873 0.03014267 -0.015270951 0.04393856 -0.05914712 0.014125714 -0.028961482 -0.009532159
beautiful 0.013152315 -0.03279622 -0.04767311 -0.039875668 -0.020733614 0.013049965 -0.009861906 0.031451005 -0.005791442 0.05095742 -0.008066563 0.0075389068 0.03823225 0.012002931 0.015909962 0.008863319
john -0.02236097 -0.0052981093 0.0052524144 0.018616414 -0.018881988 -0.013898304 -0.002131295 0.024317538 -0.0010377654 -0.012220955 0.007111756 0.0049544754 0.0008617164 -0.04055619 0.033516172 0.017159006
himself 0.04835032 0.0045748646 0.04681859 -0.039476436 -0.027024703 -0.045983795 -0.034608103 -0.022715148 0.018793033 -0.004088392 0.024368254 -0.03508755 -0.02559987 -0.0010995787 -0.020901483 0.013436543
version -0.029950568 0.03504328 0.04985447 0.02315149 0.03186671 0.013703862 -0.04610207 0.007993099 0.03745329 -0.0075849923 -0.034919415 0.038436543 -0.030718066 0.038820937 -0.032766413 0.025808383
audience -0.0109824 0.0503413 0.009691158 0.04318368 -0.008757533 0.018143987 -0.038898394 0.04939952 -0.022699416 -0.05942661 -0.031738516 0.022214044 0.0025741092 -0.03878702 -0.013033453 0.0073250905
high -0.011122771 -0.016011782 0.021506272 0.05302207 -0.03483805 0.046565842 0.02246012 -0.02979251 -0.04581532 0.006129001 0.018992705 -0.04421715 -0.004415951 0.02758883 -0.04091212 0.02060699
house -0.026608173 -0.022494432 -0.051591583 -0.034524042 0.033533424 -0.025685685 -0.018930327 0.037024077 0.041556004 -0.03638327 -0.040525325 0.0026411344 0.024509406 0.053896494 -0.045275845 0.031387
night 0.019373825 0.008462251 0.026268518 0.03212379 -0.016540222 -0.022968415 0.03656724 0.018116131 0.024877531 0.014710588 0.020452105 0.007343781 -0.033248216 -0.01336407 -0.0040905676 0.010112158
during 0.033012155 0.0033519086 -0.018005833 -0.007995002 0.016653644 0.0010266277 -0.053805012 -0.021339484 -0.017096473 0.027298821 -0.018067231 0.0418522 0.03714626 0.0041507646 0.048517466 -0.0008282494
everyone 0.0021748266 0.014005929 0.040012386 0.04064232 -0.043593135 -0.022392172 0.015298029 -0.016903365 0.026939893 0.055926386 0.04955035 -0.042189784 -0.014191106 -0.031101577 0.036300734 -0.010454773
left 0.04062627 0.020567128 -0.048634943 0.0027513453 0.039819498 -0.015450878 0.026123498 0.02192525 0.021187989 0.038824465 0.05055823 -0.045280874 0.025238266 -0.047864225 -0.034304168 0.038094994
special -0.019213425 0.013648593 -0.037706852 0.020039888 0.025189834 -0.041778818 -0.033361237 -0.0049280217 0.024817364 0.0014575091 0.020032803 0.01532164 -0.044583555 -0.035601668 -0.016491547 -0.01873234
seeing 0.014596843 0.053117502 -0.03368554 0.0135537125 0.0018602684 0.036020946 0.008573614 0.026678003 0.0030217369 0.02591844 0.045143716 -0.018576577 -0.03636309 -0.014106188 0.036547534 0.03536278
half 0.032984365 0.016619623 -0.015892688 0.00028976565 -0.017563384 -0.006368179 0.04954268 0.0073687583 -0.047015168 -0.05756838 -0.0024415997 -0.03287804 0.021872453 0.03636614 -0.021263963 -0.004276392
excellent 0.053586867 0.010445328 0.054446872 0.031185212 0.04564594 0.012984544 -0.051349297 -0.046813697 0.049307145 -0.025406402 0.05099335 -0.026882712 0.006981005 0.037961286 -0.005179839 -0.040627357
wife -0.027731434 -0.0123927165 0.034026336 0.022386028 0.004453936 -0.041919027 0.052599005 0.044639498 -0.03986384 -0.00018417319 0.030733503 0.0009877881 -0.016504955 -0.0116302185 0.019388625 -0.026278857
star -0.032917377 -0.011398486 0.036886208 -0.048800997 -0.045284837 0.018133832 -0.04390032 -0.010952644 0.018001113 0.004959271 -0.058145694 0.03211078 0.05119141 -0.0010244118 -0.04746929 0.00679819
shot 0.013203611 0.042550024 -0.056197703 0.009953829 0.0036473481 -0.00803519 -0.01071691 0.054137353 -0.016041385 -0.009283566 -0.033648282 -0.012357412 -0.03870285 0.054296628 -0.027785016 -0.009572086
war 0.024677891 0.02021957 0.03472897 -0.024918992 -0.017839102 -0.05660497 -0.030451851 0.032593794 0.041868526 -0.0029496704 0.028537247 0.021710461 0.033576217 0.015299099 -0.03946972 -0.02180593
idea 0.031512298 0.028997604 -0.044149175 0.022840397 -0.007869678 0.048348222 -0.04140525 -0.03677766 0.018029278 -0.0023220007 -0.012367874 0.03523512 0.024525197 -0.023252405 0.008733609 -0.0074908813
nice -0.01340002 0.005558246 0.033143222 0.04918328 0.003926236 -0.0021351713 0.02930181 -0.044405505 0.039655197 -0.047890194 -0.031393927 0.012530919 0.045303617 0.035475433 -0.008399126 0.033003367
black -0.0137876365 0.036320865 -0.0054386132 0.018540591 -0.024933046 0.009564806 -0.050644238 -0.0027411662 0.0025841554 -0.0031158172 0.008657255 0.039574895 -0.02553408 0.026160346 -0.02030167 -0.040831327
less -0.033658978 -0.046922475 0.050154727 -0.041485347 0.0060354276 -0.02379242 0.017086104 -0.0019466409 0.012995797 0.031584803 0.017773949 0.03888385 0.019013561 -0.03756556 0.02474827 0.0127326455
mind -0.02075162 -0.04667603 0.0008078546 -0.011291578 0.010536108 0.017597271 0.014075947 0.0036825035 -0.002422832 -0.016289994 0.04344148 -0.014807843 0.039909676 0.02634576 -0.04608098 -0.02911744
simply -0.0017933539 -0.0021845459 0.016460152 0.021971378 0.0040022656 0.042214427 0.037167832 -0.042011224 0.008287476 -0.034548298 -0.004406284 0.027945908 0.019059952 -0.0015269185 -0.03762853 0.016324783
read -0.020248456 0.019670831 -0.0025378852 -0.024586495 -0.01826857 -0.058319226 -0.034416564 -0.014968219 0.0075912722 -0.015198887 -0.024113234 0.00798118 0.055243235 0.0033059116 -0.020666435 0.022168215
second 0.035736844 0.017250318 -0.041004103 0.006756421 0.046346057 0.020400243 -0.018609762 0.039647546 -0.044918958 -0.02683562 -0.05439434 0.04401099 0.023918618 -0.00789306 -0.043146722 0.008684863
else -0.022130882 -0.040052503 0.018585779 -0.0069422442 0.043487824 -0.0513177 -0.050703794 0.02238885 0.02568578 0.0018596421 -0.020592771 -0.0030055628 0.02154113 0.0019891998 0.033592854 -0.0356474
you're -0.047965042 -0.010326764 -0.00014647843 -0.0020615915 -0.027687397 0.033800676 0.017106216 0.006741793 0.023622079 -0.020179309 0.0034807227 0.01024414 0.022268578 0.035780396 0.052411653 0.013375939
father 0.021590037 -0.014755629 0.03304031 -0.009961711 -0.015482459 0.021991808 0.013661966 -0.04184433 0.047488447 -0.020740174 0.04085147 0.033138946 -0.039173488 0.0098549025 0.042065587 -0.0163944
fan 0.0306244 -6.323107e-05 -0.026093123 -0.023275308 0.0073246676 -0.04123402 0.042985648 0.042484555 -0.00277401 -0.004694485 0.01090701 0.019190863 -0.0043422575 -0.04333768 0.015689803 -0.028066577
poor 0.02718281 0.0013241394 0.011498386 0.016095117 0.0008230747 -0.00070790306 0.028706506 -0.005069776 0.018010125 -0.012916351 -0.010620634 -0.060085867 0.03825961 -0.02368864 -0.062156286 0.035173446
help -0.004105481 -0.035255264 0.0031377997 -0.019389426 0.047536124 0.022012671 0.010451506 -0.0020342325 0.035718665 0.012485495 0.036725946 0.025955588 -0.011029055 0.0027336436 0.010121734 -0.023029579
completely 0.029031815 -0.016691972 0.00038512322 0.047888592 0.043821592 -0.042728946 0.00056178303 0.046779603 0.025520714 -0.05009287 0.02321021 0.0033415898 0.04173264 -0.043288562 -0.026343679 -0.006204862
death -0.027886387 0.011497005 -0.029252304 0.037060264 0.052138954 0.009889741 0.0152119985 0.030173097 -0.04640777 0.013892706 0.035594635 -0.048138782 0.012404471 -0.037440646 -0.008151842 -0.023576668
3 0.024408357 -0.030966181 0.042328466 -0.016906532 0.009645402 0.026237587 -0.031605132 -0.04694249 0.04295588 -0.0028720147 -0.01661487 -0.0043347087 -0.01272635 -0.05095869 0.038627982 0.022935884
used 0.030417308 -0.03993866 0.008209193 -0.0228805 0.056207124 0.044525646 0.0053441334 -0.010198279 -0.025939964 0.016810356 0.0071679447 0.033293974 -0.024684569 -0.01638014 -0.036328293 -0.029294334
home -0.04126965 0.022494316 -0.035225842 -0.04005547 -0.017557256 0.00059829437 -0.023079192 0.03534573 0.02818558 -0.019699594 -0.008293771 0.00028545372 -0.022391928 0.044798035 0.009373239 -0.040079847
either 0.024002658 0.024117792 0.04430677 -0.027984668 -0.044405594 -0.004298748 -0.034464005 -0.009901082 -0.03299726 0.020841386 -0.027147273 0.025850678 -0.045859482 0.0073233573 -0.04491646 -0.0042243386
short -0.021795558 -0.0021804876 -0.000998865 -0.012344849 -0.0013284347 -0.026799833 -0.022519689 -0.04605581 -0.048367184 0.03761095 0.033561263 0.00340713 -0.018622607 -0.022322308 -0.007010901 0.03038513
line 0.036829945 0.03235768 0.031537473 -0.012809022 -0.0070389104 -0.04290347 -0.032434255 0.018571407 -0.010314075 -0.03698262 -0.0044656335 0.022078192 -0.047701374 0.0028927315 -0.005331839 -0.046181317
given 0.04225197 0.02493048 -0.048321176 -0.02648607 0.012180113 -0.03356212 -0.042562786 -0.029507177 0.03273159 0.015861789 -0.00581176 0.046236806 0.04059778 0.03235198 0.02732902 0.022707332
men -0.032974478 -0.024352044 -0.022917833 -0.017454663 0.02563273 0.01341842 -0.030752735 -0.01707514 -0.0016607781 -0.05749612 -0.017446784 -0.045243457 0.018100873 0.03342676 -0.020816542 -0.052480385
top -0.015462068 0.010066607 -0.025146944 0.04750725 0.030302644 0.05927957 0.018921847 0.0010365149 -0.01912497 -0.011324429 0.03435388 -0.033189878 0.022927199 -0.05146814 -0.017310264 0.045200136
dead 0.0057820487 -0.019397072 0.017911797 -0.036522076 0.03378946 0.045624007 0.016043121 0.036615226 -0.037659638 0.039648276 -0.032855507 -0.0014976936 -0.021761965 0.022388447 -0.030800102 -0.017481932
budget 0.02166466 0.003046981 0.042797286 0.020671606 -0.012103608 -0.032117575 -0.012155646 0.02190329 0.0036562192 -0.007979913 0.0041877218 -0.052116077 -0.023552949 -0.023712195 -0.03696623 0.0010768407
try -0.040590413 -0.030378768 -0.024126023 0.0002378136 -0.043884262 -0.046223156 -0.038619228 0.008045066 0.012604949 -0.041836664 -0.04411558 -0.03755557 0.031020772 -0.017986665 0.037244868 0.024574526
performances 0.017728811 -0.018782321 0.033805624 -0.008062791 0.045346193 -0.024618395 -0.014915232 -0.038005807 0.03214005 0.012883381 0.008154009 0.032563012 -0.035977453 -0.002228723 0.05603965 0.00844356
wrong -0.056130927 -0.038888272 0.035711173 -0.016694989 0.014477255 0.030600611 0.053662665 0.046136446 -0.021465318 0.003268246 -0.016075378 -0.005201193 -0.010350197 -0.0030138323 -0.049966037 -0.017583014
classic -0.016712194 0.04742808 -0.021813603 0.009172909 -0.0012029808 0.020769646 -0.048190944 0.040134043 -0.030541327 0.005105114 0.023410505 0.022628883 -0.028679574 0.0058549442 0.03074119 0.010854509
boring 0.045723878 -0.04450627 0.0546057 0.013394266 0.033694886 -0.048897058 0.031904187 -0.0025838448 0.040844347 0.030970654 -0.007738871 -0.034245837 -0.03657251 0.016275134 0.00040024394 0.0057409503
enjoy 0.02300818 0.039445005 -0.029713105 -0.041456666 0.0059189205 -0.04608915 0.0019544053 -0.048184376 0.00325783 -0.033797715 -0.017585902 0.014164088 0.01630484 -0.028462032 -0.0497148 -0.012113053
need 0.0061524226 0.028672041 0.016609268 -0.052658986 0.025376173 -0.025210794 -0.051886912 -0.04643172 -0.0024201164 -0.0303177 -0.028347768 0.046543054 -0.009406997 0.003015407 0.01261553 -0.011459364
rest 0.04940054 0.013355233 0.03188812 -0.045103524 -0.02876197 0.009796311 0.03219553 -0.013561646 -0.03113898 -0.040282633 -0.02025505 0.021995667 0.007534819 0.0022539343 0.025337035 0.034535103
use -0.0283821 0.014675945 0.0040655048 -0.00572603 0.027986199 -0.004529398 0.007261267 0.028976027 0.024082737 0.02826025 0.0230174 -0.0061865025 -0.023730246 0.039862894 0.027923035 -7.6810036e-05
kids -0.004400891 0.025600662 -0.021930138 -0.011911061 0.0063889963 0.039178647 -0.047031287 -0.018095499 0.03430424 -0.04097534 -0.028545707 0.034695603 -0.037357148 -0.049059898 -0.0242727 0.039690994
hollywood -0.04238339 0.0021993453 0.02445392 0.0010457308 0.043268707 0.0529475 0.024984479 0.028949672 -0.04080882 -0.025494726 0.057428367 -0.0031729913 -0.020577613 0.025788464 0.013806127 0.0064162873
low -0.0067186626 -0.008062349 -0.004091648 -0.050243042 -0.0509547 0.05405432 -0.04918844 0.0083097005 -0.009923667 0.051102962 0.008429752 -0.019638132 0.03431632 0.04888589 0.026670214 0.020084241
production 0.025420027 0.03583549 -0.025000047 0.02421798 -0.013328348 0.006848796 -0.018041002 0.013305009 0.05016675 0.02176876 -0.005987065 -0.02848044 -0.01574412 0.02845107 -0.019415542 0.015409224
until 0.03282858 -0.008901796 0.050814327 -0.040403772 -0.034662765 0.02732391 -0.023911666 -0.059347242 -0.05095103 0.040322974 0.0225046 -0.00819076 -0.004242423 -0.025731 -0.01371508 -0.01137779
along -0.0089606345 -0.0454736 0.01549152 -0.013673607 0.025784262 -0.0093471175 -0.04234397 -0.018874463 0.02448015 -0.00045599334 0.012628791 0.0145660145 -0.03985935 -0.0036233782 0.041352507 0.009121475
full -0.026721325 0.03243566 -0.05272852 0.026998479 -0.022935612 -0.0069803456 -0.0012527736 -0.020037886 -0.021141114 0.011306822 0.014920091 -0.042552337 0.01557757 0.006668462 0.021892237 -0.027212143
friends 0.0039659287 0.02279331 -0.023393333 0.008501658 0.00014530409 0.022337295 0.038024656 -0.033859666 -0.052574676 0.004588315 -0.03292102 0.00085490826 -0.0123673 -0.02907381 0.019883677 -0.013688799
camera -0.0009529322 -0.055999786 -0.025520809 -0.0057827127 0.011948673 -0.045211095 0.00877143 0.03524406 -0.011900956 0.010277582 0.034152143 -0.024146808 -0.009706472 0.0108885765 0.051900562 0.038323577
truly -0.04935324 -0.056768008 -0.0052003283 0.0010645835 0.02439607 -0.04057152 -0.0005283917 -0.040693227 0.0315937 0.011757775 0.015284547 -0.0435275 0.034712683 -0.019183347 0.004931485 -0.047071375
women 0.03098893 -0.028587716 -0.023453776 -0.04028109 0.055514127 0.014907257 -0.0016499894 0.034720212 0.04260576 -0.016596116 0.000886832 -0.0060359063 0.014580439 0.048171356 -0.033712257 -0.012554908
awful -0.012826525 0.024017457 0.022767883 -0.020724328 0.037263103 0.015706278 0.009685329 -0.017841628 0.02358752 -0.0038359861 -0.0037400569 -0.021825816 -0.017066726 0.05621406 -0.047070436 0.003197719
video -0.034927692 0.019334666 -0.0288311 -0.04538677 -0.03258069 -0.026212731 -0.028023709 0.032037456 0.002245774 -0.012676061 0.027635861 0.028035594 -0.010252133 -0.03832779 -0.021806031 -0.046690136
next 0.055665884 0.019419825 -0.04433826 -0.021906016 0.0089898985 0.0120651545 0.024825418 0.019722873 0.048040178 0.0035909184 0.02411615 -0.023337036 0.040426105 -0.04408882 0.058956083 0.039090917
tell 0.004457153 -0.042556502 -0.04229312 0.03599814 -0.051765684 -0.026751516 0.015104073 0.02656075 0.043870788 0.030704146 -0.023731617 -0.015294383 -0.026182128 -0.008308167 0.0062503503 0.0016586244
remember -0.013409483 -0.014159806 0.036813073 0.0073771104 0.013978466 -0.030590497 0.039915286 -0.006655896 -0.051450457 -0.037350763 -0.000839063 0.0028406607 0.006702859 -0.033438597 0.02337597 0.0068175104
couple -0.0340901 0.014781909 -0.042706944 0.044370312 0.03348759 0.032484025 -0.0061779553 -0.018928515 -0.0058236886 0.01844575 0.014339701 0.026052948 0.022457477 0.038233753 0.024411539 0.012275268
stupid -0.021175323 0.0018541428 0.010493571 -0.021989549 0.023487482 0.006504264 0.047642283 -0.01829627 0.006834192 -0.035518087 0.009458488 -0.04426206 -0.018112129 0.017697457 -0.038027424 -0.029104903
start -0.019577207 -0.032128084 -0.020165505 -0.009044902 0.050231315 0.036685638 0.04007158 0.012997062 -0.011304549 -0.042896498 -0.058459315 0.004480925 -0.039412566 -0.038057953 -0.019186094 -0.004271269
stars -0.032131538 0.027181689 -0.056497503 -0.01622463 0.033072863 -0.010324539 0.04091259 -0.0010691701 0.011319502 -0.013962443 0.016621478 0.0269899 -0.03882247 -0.05758615 -0.014699029 0.04310442
perhaps -0.0027380937 -0.019668374 -0.04409438 -0.033307504 -0.00089172414 0.0032544367 0.042491805 -0.004986292 -0.025839267 0.037396055 -0.0009778021 -0.042667057 0.0030585574 0.0043598223 -0.009470384 0.021045243
sex -0.033574946 0.058701374 0.014981301 0.017695133 0.013266503 -0.0073037976 -0.006728785 -0.0154341925 -0.0007491119 0.005418683 -0.006726859 -0.050425056 -0.014491249 0.041482523 0.00983734 0.026836226
mean -0.05049726 0.012358174 0.033895284 0.056371044 -0.055512648 0.03566834 -0.050140243 -0.021972483 -0.0041576717 0.026294185 0.031541586 -0.040062156 -0.003264662 -0.05777314 -0.02666369 0.053337924
came -0.040323786 0.011915457 0.036974773 -0.043813895 -0.006053616 -0.022042677 0.0037186467 0.004949601 -0.005260089 -0.012405115 0.012051281 -0.0046006097 0.0024696854 -0.031175096 -0.03371484 -0.0046624965
recommend 0.023866374 0.031492144 -0.0019051441 -0.054704845 -0.00501505 0.035545345 -0.024603773 0.0345864 0.005644125 0.043532524 0.010110965 0.0029885182 -0.021524848 0.011481625 0.017986264 0.01449189
let 0.02409887 0.018335775 -0.028571943 0.02508029 0.010337437 0.0033040112 0.03930367 0.042781904 0.00065629254 -0.03156285 -0.026479084 -0.032115232 0.049514733 0.015084106 -0.05198067 0.0064220196
moments -0.02798271 -0.04182416 -0.02278246 -0.03752309 0.049061943 -0.028238557 0.02329978 -0.013235203 0.0064453594 -0.03892943 -0.014930053 -0.0064316015 -0.008211953 -0.0051902332 0.008488306 -0.027135039
wonderful -0.0010938712 0.012109224 0.025110992 0.0027244382 0.0034861574 0.025561186 -0.010669676 0.032535452 -0.024312096 0.034570023 0.02970462 0.018944077 0.010292082 -0.0061630504 0.021541573 0.030024452
episode 0.0039691175 -0.045351747 0.01152281 0.012047122 0.04025013 0.009182021 0.039124984 -0.016444184 -0.0067152753 -0.010761391 0.005391059 0.028298413 -0.02442653 0.0024612502 -0.032041736 -0.051657863
understand -0.021476151 0.010772673 -0.042449173 0.00066158175 -0.03925139 0.010915999 -0.009179071 -0.015628599 0.023815362 -0.04443445 0.0054847635 -0.02133302 0.05170335 0.00822859 -0.01734213 -0.012968793
small 0.0014242573 -0.054901857 0.019563176 0.015479092 -0.039079443 0.01344634 -0.04453586 -0.026372354 0.007996629 -0.03592882 0.044610936 -0.02257536 0.041342463 -0.0038549234 0.03534147 0.019634718
face -0.016799519 0.04335454 0.0007213206 0.012541905 -0.044001643 0.0017441846 0.0072122267 0.020853888 -0.017152779 0.03329024 0.027191797 -0.034247383 0.04524578 -0.02491089 -0.024934793 -0.053054243
terrible -0.00802195 0.04815658 -0.05101684 0.019547103 0.051596325 0.056593098 -0.0110883 -0.009989055 -0.039800666 -0.0025122555 0.010606212 0.04535485 0.02979895 -0.0012084026 -0.03277694 -0.0054308735
playing 0.051544953 0.036900513 0.013993496 0.013167764 0.05071873 0.023595592 0.056104127 -0.014402179 0.016094657 -0.03326732 0.030783838 -0.055735603 0.02552034 0.013619816 0.013263531 0.02224775
school -0.044210013 0.0053658397 -0.0015806267 0.043445207 -0.03541018 0.05447111 -0.010387806 0.01628851 -0.015481183 -0.02426814 0.011622476 0.028578557 -0.019280987 0.03014748 -0.019576155 0.04148238
getting -0.055490024 0.02135568 -0.017345471 -0.026639877 0.008360649 0.032617375 0.00036836625 -0.030776327 -0.021836987 0.038583964 0.042792507 0.033188812 -0.023116864 0.036020022 0.00056858204 -0.012339499
written 0.043014407 0.0042004404 -0.0392886 -0.04797366 0.021770895 0.00019025855 0.030048274 0.0038486742 -0.007804579 -0.045538872 -0.026798252 -0.02656577 0.050531056 0.015296735 0.0005511189 0.011918669
doing -0.014579765 -0.027508914 -0.021026937 -0.0497988 0.0029521468 -0.04338704 0.012751266 -0.040316038 0.02090703 -0.047760364 0.04426897 -0.035339754 0.034491632 -0.004096521 0.046239406 -0.033556383
often -0.05306066 0.03399662 0.01719965 -0.0013003743 -0.019016758 -0.049684227 -0.033232365 -0.017918738 -0.04953841 -0.024156973 0.020287026 -0.0057017365 0.052887563 0.058706697 -0.016269214 0.034363315
keep 0.032560352 -0.053113762 -0.030642053 0.005769565 0.0347209 0.015444937 0.017957067 -0.019056173 0.025291216 0.03932479 -0.0022462315 -0.010761741 0.03603082 -0.034950595 0.022714062 0.025128039
early -0.04688652 -0.034371853 -0.047172368 0.05239547 -0.039423432 0.035819177 0.04652027 0.023088625 -0.0007101107 -0.03256624 -0.026948888 -0.0148366345 0.044819895 -0.0043143574 0.01047866 -0.017227894
name 0.031091556 -0.038122367 0.0062318323 -0.03076586 0.020403046 0.051912494 -0.008141336 0.0073396713 0.029285979 -0.034752246 0.024422718 -0.0120750405 0.051269766 -0.02123494 0.0075314376 -0.03349538
perfect -0.03901792 3.032508e-05 0.013759758 0.044770107 0.021698205 -0.048175238 0.013465706 -0.022453295 -0.02916374 -0.030511022 -0.024066648 0.0062260404 -0.040090956 -0.012190644 0.040303245 0.031419042
style -0.02104098 0.006317413 0.003195195 -0.0036884933 -0.0020838855 0.027372092 -0.022798037 0.037457768 0.026195642 0.03230169 0.036963873 -0.019441944 0.011338851 -0.023867868 -0.0094393315 -0.025995849
human -0.029711645 -0.0040333346 0.03903816 -0.0026485224 -0.012415906 0.039146144 0.023351816 -0.030520795 0.05617648 -0.040620692 0.0030372944 -0.018609235 -0.004686156 -0.052786835 0.018172864 0.028060496
definitely 0.04748167 -0.03596063 0.053476024 -0.030662745 -0.016739955 -0.049879447 -0.0030440844 0.0082765715 -0.012685252 0.05079014 -0.009259076 -0.02568015 -0.03753002 0.04181864 -0.0060011433 0.024037663
gives 0.035893366 -0.0139655275 -0.013249316 0.053206768 0.002685516 -0.023935037 0.044057846 -0.023571279 -0.029792128 0.012721547 0.050730947 0.0122677535 -0.0084499 0.011517696 0.022429295 0.05245377
others -0.03292482 0.02054787 -0.023446552 0.042363904 -0.024100825 0.02329631 0.0039073005 0.04650634 -0.03905173 -0.028998539 -0.01866315 -0.032907344 -0.023194993 0.015871633 0.012803853 0.031649426
itself 0.016409718 -0.024422111 -0.004408094 0.0016629212 0.045802016 0.017683687 -0.037168037 -0.01542682 0.0062904456 -0.04252326 -0.036926698 -0.009310596 -0.018765159 -0.019434176 0.039618716 -0.010243988
lines 0.004621188 -0.03572984 0.0044908146 0.0067171487 -0.039139546 0.045816828 -0.005711782 -0.022834592 0.02946132 -0.007231604 0.034357652 -0.023277698 -0.008322485 -0.05050255 0.017739888 0.040931858
live -0.02070478 -0.048765905 0.026020752 0.041713256 0.038644467 -0.009341902 0.036043637 0.0011028824 -0.032927647 0.01957075 -0.0038485941 -0.01920311 0.0021282271 0.02951678 0.018971592 0.036064297
become 0.032630764 -0.050329 -0.040001586 -0.025765445 -0.008430424 -0.033643 0.017234227 -0.04114 -0.03819659 -0.0123653915 0.024875475 0.010836354 -0.039187122 0.044010792 -0.013622144 0.0123906
dialogue 0.0027912215 -0.027493516 -0.032005753 0.042109206 -0.04566029 0.025866685 0.01684223 -0.04109017 -0.040002715 0.037559144 -0.02366407 -0.026638282 -0.036555056 -0.059066724 -0.033288766 0.012025171
person 0.014170345 0.028584173 -0.034095477 -0.03254785 0.04245377 0.043799177 -0.0195487 -0.029952062 0.0062967595 0.04274682 -0.005787086 0.010158911 -0.03670485 -0.02665619 -0.019747999 -0.01935767
lost 0.039236095 -0.021821659 -0.031030718 0.011937804 0.0066093397 -0.02372037 -0.034971107 0.036114622 -0.016392829 0.015951762 0.047300465 -0.015819492 -0.035544388 -0.014753808 0.015856432 -0.0102965515
finally -0.012967164 0.020970412 0.04059581 -0.038721375 0.0307146 0.025035962 0.016773779 0.027212745 -0.0065800706 0.037920084 -0.013287875 -0.036588278 -0.021880396 0.040252395 -0.01778209 0.03173865
piece -0.040471338 -0.02079815 0.018693699 0.044723477 0.014417382 -0.014307179 0.012662166 -0.012122794 -0.025986355 -0.040332902 -0.012157398 -0.039663266 -0.01691178 0.04142719 0.019194636 -0.012101498
head -0.04535299 0.015790066 -0.041958373 -0.023555754 0.0009356363 -0.03612602 0.0062967245 -0.018406607 0.041252576 0.034638174 -0.02897475 0.009039296 -0.048528787 0.014049273 0.008903922 0.00088115246
case -0.024498984 -0.032027204 0.01949439 -0.013635418 0.026400866 0.030366663 -0.026851054 0.04511201 0.0011329546 -0.03364886 -0.043406717 0.041827373 -0.030952364 -0.026423518 0.03014919 0.032981675
felt -0.03978387 0.005932772 0.03201252 -0.007716713 -0.040618673 -0.0028074055 -0.04308646 0.050403167 -0.01746354 -0.050738804 -0.034792144 -0.02731222 -0.021663204 0.029953612 0.03427689 0.038428724
yes -0.0073404047 -0.00538944 0.034983236 0.008092747 0.0030685677 0.032841925 0.042402063 -0.013522647 -0.019435843 -0.020550514 0.024538765 -0.036747657 0.051498316 0.014384913 0.015369376 -0.022982258
liked 0.050505158 0.022860406 -0.0036315056 -0.04566631 -0.01766302 0.037139542 0.028891433 -0.03335842 0.0062852474 -0.052678317 -0.042376436 0.005687069 -0.020629724 -0.005604769 0.05207291 0.027569775
supposed 0.025257971 -0.03359529 -0.02517493 0.024013415 0.032648668 0.04168941 -0.03777544 0.029044194 0.03058252 0.005714632 -0.045764267 0.023400215 -0.013290264 0.0300422 -0.02046369 0.014075959
title -0.0189471 -0.04712267 -0.02195367 -0.014260185 -0.017159034 -0.017656814 -0.018715855 -0.03800429 0.04445307 0.017792592 -0.033927847 -0.018632611 0.02538342 -0.03837038 -0.007902912 0.0039039387
couldn't 0.0014947517 -0.008964649 0.010578066 -0.008093331 -0.027883353 -0.0027742304 0.008809147 0.026563585 -0.0081831 0.013375968 -0.021785373 -0.018407948 -0.024768855 0.006469955 0.023538396 -0.026575357
absolutely -0.007203744 0.041034248 -0.023710366 -0.0077234264 0.04977592 0.040873304 0.05699858 0.03526276 -0.024754701 0.019538222 -0.0042776987 0.031008968 -0.034348693 -0.01222023 0.032851886 -0.034781124
white -0.008315552 -0.0029228132 0.0530271 0.028195757 0.030038686 -0.014744377 0.02053473 -0.004428211 0.030234063 0.030528348 -0.03510339 0.037767567 -0.020198384 0.04327554 -0.03662184 0.025704479
against -0.040093224 -0.052417237 -0.0008095715 -0.0030070245 0.013478237 0.04134444 0.032950617 0.021603752 -0.019765437 0.042259134 0.048036955 0.019761797 -0.010662321 -0.018824646 -0.009548666 0.02787311
boy 0.039711427 0.012650578 -0.050233442 -0.039268646 0.0464002 -0.050316248 -0.019317782 -0.035964105 -0.03764425 -0.043358892 0.022690346 -0.0014178809 0.041411486 -0.0013952766 -0.05422638 -0.004033516
picture 0.03896469 0.0029441796 0.046281975 -0.013022043 0.0012828797 -0.041949157 0.019169638 0.03141953 -0.013917918 -0.011535034 -0.018873494 0.044323776 -0.020344377 0.018750161 0.0095522385 0.030050421
sort -0.009928779 -0.051864803 -0.01302742 -0.014084865 0.008810917 0.013871645 -0.022166425 -0.001266921 0.024654267 0.020491155 0.0126490705 0.009096441 0.009002342 0.0065678773 -0.027416402 0.023286678
worse 0.02318001 0.022691652 0.039033912 0.026222669 -0.032069582 0.036273926 -0.017002732 0.036927722 -0.039245494 -0.04838286 0.052855957 -0.0463487 0.017995954 -0.020191036 0.035167985 0.011643214
certainly 0.032510266 0.012336645 -0.024262581 -0.033930544 -0.04203295 0.012368677 -0.034466155 -0.04288743 0.056698333 0.036201254 0.020384483 0.046881605 -0.013270409 0.030911285 0.045680035 -0.006430026
went 0.045135144 -0.035380792 0.054320563 0.029816473 0.006947194 -0.003633958 0.02855446 0.025474953 0.008033522 0.033828955 -0.016680678 -0.0024847763 -0.020229531 -0.032209992 0.0022465878 -0.05031707
entire 0.028246883 -0.010327475 0.015432933 0.009294389 0.015161053 0.027544202 0.05118567 -0.009227314 -0.03264902 -0.010987873 -0.005556045 -0.03004691 0.016378017 -0.030033778 -0.022168584 0.004558324
waste 0.030730031 -0.015408356 0.032101803 0.04517682 0.009483038 0.0196749 -0.031075211 0.054676626 -0.017019134 -0.047899626 -0.009191596 0.014781228 -0.021333791 -0.01891847 0.00052385463 0.037706897
cinema 0.04463468 -0.004297123 0.023470696 -0.00020687365 -0.044433244 0.025365151 -0.047035173 -0.013518183 -0.029172499 0.0040586866 0.024022814 -0.04166468 -0.007767596 -0.014761326 0.021600317 0.028252568
problem 0.037878145 0.024546644 -0.010143803 0.021455765 0.045226388 -0.006126979 -0.016980464 -0.033574596 -0.018108407 -0.0050602206 0.00282626 0.045380823 -0.034762464 0.035199486 -0.002165551 0.03345347
hope 0.013850276 0.0010914266 0.021345766 0.03935479 -0.022359883 0.0066610356 0.04453505 -0.019780356 0.015063683 0.02330779 0.0058358177 -0.03685848 0.011256197 0.041195504 0.034265723 -0.04130258
entertaining -0.0271766 -0.042795457 -0.038225874 -0.002221838 0.010781882 -0.006059124 -0.042112205 -0.0013123623 -0.01650231 -0.046049077 -0.02835389 0.03073881 -0.032901358 -0.0026681665 0.056673806 0.01620127
she's -0.009681137 0.043791275 0.013850671 -0.0365236 -0.021400856 0.0076509896 0.007617817 -0.0027265504 0.033270795 -0.054953832 0.025686366 0.031442977 0.04736472 -0.003840728 -0.042473443 -0.02844624
mr -0.04682461 0.022034986 0.034414865 0.020507261 0.022354914 0.035736337 0.025441406 -0.008305165 -0.011345147 0.02596547 -0.00026964265 -0.00014309079 -0.0049327766 -0.007948538 -0.01534069 0.009905756
overall 0.016140003 0.0027604934 0.01662374 -0.010304638 -0.0044923695 -0.00079642213 0.036946453 -0.0068582017 0.007570847 -0.011987081 0.01269824 -0.022391135 0.026554894 -0.026182352 -0.012689745 -0.02170918
evil 0.011128778 -0.053075325 -0.014407778 -0.037351985 0.0072904835 0.04770331 -0.045020875 -0.0474521 0.03896509 0.040275805 0.040805653 -0.03802417 -0.045749944 -0.058407474 -0.004962673 -0.021627748
called -0.015759612 0.018043026 -0.02332593 0.001700207 -0.004788025 0.01963867 0.032480784 0.017711503 0.024415981 -0.027251637 -0.015688736 -0.034791097 -0.006488613 0.04009223 -0.032895997 -0.035640486
loved 0.03850571 0.009650099 -0.019684542 0.014827658 0.0019158005 0.02263133 -0.04887795 -0.032647297 0.03516665 -0.04320586 -0.03337095 0.018803855 -0.044075202 0.027609097 -0.011182492 -0.030606981
based 0.0070254165 -0.051974446 0.03373816 0.027168103 0.026169715 -0.0382056 0.004036823 0.021899424 0.008783708 0.004156114 0.0059300005 0.04237865 -0.0060192817 0.032869946 0.034827735 0.043415762
oh 0.018162746 -0.043375857 -0.057168484 -0.024536582 -0.046043973 -0.03894903 -0.025344169 0.010853851 0.049716827 0.009035159 0.013662 -0.014041577 0.042109877 0.018391898 0.006202073 0.04677518
several 0.032882404 -0.009499508 -0.04463576 0.037532073 -0.024690384 0.03796194 -0.027391387 0.02074872 -0.047378223 -0.051226 -0.030698651 -0.0008129522 0.03840297 0.011494936 0.024488153 0.014611254
fans -0.026995847 0.034763597 0.044119745 -0.010541197 0.00078413 0.0053929654 -0.00016639878 -0.02173359 -0.04874494 -0.025957081 -0.03659084 0.008665789 -0.013503766 0.0069474485 0.020079223 -0.003875126
mother 0.029236222 0.0047531105 0.048387736 -0.04071384 0.03137576 -0.024457818 0.044027817 -0.022475734 -0.0032364102 -0.04751913 -0.009772776 -0.00084727426 -0.011041108 -0.033491906 -0.030472785 -0.038496405
drama 0.033028208 0.021271743 0.02050897 -0.021373238 -0.0010284681 -0.024735471 0.024289722 0.022293193 -0.013158182 -0.031217907 0.043201737 -0.00037749417 -0.011648099 -0.031617403 0.03664489 0.035770953
beginning 0.015399298 0.04755744 0.011849696 0.045546774 0.04359851 0.001988339 -0.014946638 -0.042777263 -0.03650413 0.045336273 0.042836856 0.03295167 0.015480508 -0.037252817 -0.05133805 0.04010601
killer -0.0480656 0.0039644227 -0.050796673 0.02649229 0.033044796 -0.03722609 -0.021524388 0.01437285 -0.015322551 -0.025376014 0.0003024671 0.008233118 0.04273958 -0.004960406 -0.019077329 -0.02551505
lives 0.04883621 -0.036410656 0.01034211 -0.0387632 0.004103329 -0.032251894 0.053689666 -0.0024218534 0.014036552 0.041046977 -0.004223175 0.027402898 -0.010086652 0.04312428 -0.013309427 0.038937766
5 -0.018348709 0.011624384 -0.03049631 -0.02379755 0.0035662996 0.0447775 -0.0036488625 0.017671017 0.015347105 0.022264093 -0.028821364 0.01245021 0.035947688 -0.021154188 0.028319841 -0.041961335
direction 0.033363733 0.04606382 -0.004088263 0.005940142 -0.04500205 0.02755509 -0.01769086 -0.009489658 -0.0026346066 -0.05601413 -0.02677231 0.04084552 0.008932924 0.011731564 0.0054581617 -0.011698917
care -0.026975485 -0.052642737 -0.030509144 -0.034805693 0.03512241 0.033694495 -0.0087358765 0.029914856 0.027154122 0.007792408 -0.024591263 0.0085073905 -0.0020559418 -0.03536656 -0.029198559 0.012815258
already -0.01745006 -0.0092063565 -0.056981463 0.037097443 0.008405303 -0.025675822 -0.029328203 -0.03212313 0.04095756 0.036350057 0.0074222735 -0.016397163 -0.026621386 -0.02688009 -0.017812708 0.00042988211
becomes -0.003289412 0.019325295 -0.008802099 -0.012558427 0.0025620635 -0.017363511 -0.012561188 -0.003617594 0.018268755 -0.026166923 0.051940806 -0.0459628 0.043720827 0.020351004 0.031511895 -0.014857246
laugh 0.024118429 -0.03262429 0.03668079 0.03770703 0.021638744 0.051546372 -0.002485058 -0.047068924 0.05713891 0.016807415 0.0409046 -0.014906275 0.030319262 0.035430573 -0.009077754 0.021770013
example -0.03080805 0.041364457 -0.022634927 0.02113316 0.018503506 -0.015915137 0.036486298 0.032821827 -0.017574834 0.013962068 0.023867888 -0.023172392 -0.050105844 -0.04933244 0.007470863 -0.009160955
friend 0.041667696 0.052053712 -0.0503992 0.0015596389 -0.052055236 -0.009067724 0.03017279 0.0023171604 -0.034177 -0.007196615 0.03220489 0.021176998 0.009502587 -0.040553473 -0.032332867 0.020753717
dark 0.0018287558 -0.009143842 -0.009672449 0.017211357 0.026272511 -0.0070918226 0.029352479 0.021200182 0.030606594 -0.022101467 -0.048068713 0.02370876 -0.0048961155 0.009192443 -0.00645515 -0.017162621
despite 0.022512715 0.01910812 0.0063035153 0.047690373 0.0197639 -0.05485348 0.03671788 -0.0051436275 -0.017927477 0.010316036 0.027241569 0.032027848 0.022847313 0.039561193 -0.010514998 -0.040125478
under 0.028756076 0.046741784 -0.0068415767 -0.013308289 -0.013202001 -0.0075959596 -0.018435128 -0.022753306 -0.021135796 0.035970293 -0.011311277 0.051295288 0.007504929 0.0057224566 0.04370282 -0.027521484
seemed -0.0039403704 0.03210859 -0.020889316 0.02617773 -0.009921416 -0.018740162 0.03197186 -0.004776675 -0.038337924 -0.016126439 -0.044386245 0.039778795 0.023089923 0.004549691 0.035735175 -0.0155605795
throughout -0.054407 0.0447782 0.008670352 -0.00093005714 -0.035369474 -0.03223695 -0.03441977 0.033713926 0.036033716 -0.0005328149 -0.04580046 0.017166933 -0.04597039 0.04057388 -0.034610897 -0.04835458
4 0.043427944 0.001459705 0.000621936 0.040945083 0.0018225405 0.04419304 -0.02924761 -0.037418146 0.03276896 0.025391182 -0.038413208 -0.008377122 -0.029723277 0.009825202 0.04256375 0.0055580735
turn -0.04684017 -0.049727995 0.012301968 -0.008499932 0.034381058 -0.02480431 -0.008906575 -0.04678737 0.018405361 0.027604328 -0.0076158037 -0.013000723 0.033672713 -0.022444809 -0.0050683725 0.032499056
unfortunately 0.037962567 0.025925102 -0.013643157 0.0027537334 -0.014682767 -0.0067166863 -0.009165438 0.030593436 0.0054197595 0.011177323 -0.0348029 -0.06058394 0.025311705 0.008728076 -0.04614489 -0.049113985
wanted -0.014483867 -0.02155918 0.0016094976 0.050661262 -0.0052932 0.035526488 -0.020622315 0.0215718 0.053534858 0.019818872 -0.030858103 0.034261335 0.03458419 -0.007991708 -0.003897815 0.03818403
i'd -0.027593222 0.036872786 -0.026014827 0.0073042535 0.040310778 0.03747128 -0.03439333 -0.0092749195 0.04553477 0.016825072 0.036482714 -0.030869663 0.042027462 0.016886793 -0.0054242006 0.009879882
 0.042401265 -0.022358717 -0.002543583 -0.042496447 0.046043795 0.006952232 0.018878665 0.046047818 0.032194637 -0.043564904 -0.053267173 0.0017021149 -0.033695664 -0.0022313357 0.009899494 -0.054805174
children 0.021953134 -0.005982518 0.021362271 0.044943307 -0.014603719 -0.038004056 -0.04397394 0.014271081 -0.0165642 -0.02862097 0.019140195 -0.00442533 -0.053606514 -0.038925935 0.019682642 0.05028308
final 0.038884044 -0.055420466 -0.025129426 -0.050543115 0.031033177 -0.009785767 0.010401764 0.022665963 0.043459903 0.0025209966 -0.023569569 0.037686795 -0.0143678095 0.0286647 -0.0007353332 0.02669304
fine 0.053499006 0.03715891 0.057258915 0.012179769 -0.023937482 -0.019221125 -0.042069707 -0.003599415 0.032504294 0.038443793 -0.03446897 0.008911015 -0.028435081 0.042157743 0.038570374 -0.044628505
history 0.014808506 -0.057287633 0.004480353 -0.038824655 0.031868998 0.007298332 0.04390337 -0.032134075 0.023090214 -0.00429465 0.053572606 -0.011696759 0.030474506 0.004465551 0.028786797 0.049952727
amazing 0.017817035 -0.0050390507 -0.02140664 -0.03487735 -0.030471763 0.035256885 -0.038483314 0.02938328 -0.016019113 -0.01935943 0.01933844 -0.024474462 0.008110692 0.0005465064 0.042705484 -0.03660898
sound 0.00988988 -0.033285573 0.006606508 -0.010380079 0.036035806 0.0031692632 0.024854489 0.00291281 0.04748466 -0.020691717 -0.036138114 0.00163628 -0.025762102 0.007104146 -0.0076741353 -0.03687378
guess 0.006649639 -0.0025322977 -0.06080014 0.03281585 -0.021827314 -0.030455517 0.038310505 0.03660603 0.026381204 -0.00075758825 -0.02417508 0.0058974847 0.036471218 0.016547509 -0.017910477 -0.03310457
heart 0.056156985 -0.021021267 -0.025572428 0.014539995 0.0012355304 -0.042850222 0.0151552465 0.042314306 0.041518632 0.021718923 0.013764513 -0.044317946 0.008651789 -0.0367807 -0.0063265893 0.04214725
totally 0.047817055 0.015441908 -0.01226872 -0.021661323 0.010034411 0.032399643 -0.033597507 0.034235176 -0.0522517 -0.044193525 -0.020935688 0.0395962 0.050834764 0.026355872 -0.03414506 0.0018139415
lead 0.015990697 -0.0018082352 0.033894286 -0.01964357 -0.03525205 -0.050801266 -0.0031774987 0.007915972 0.030323032 -0.009313304 -0.007832454 0.020854533 -0.055536848 0.040546868 -0.0034308927 0.04489289
humor 0.007685306 0.00015577346 0.033315614 0.0247382 0.02075682 -0.010205599 0.04415015 0.00049333036 0.02677825 -0.051836748 -0.029956423 -0.016052993 0.017662562 0.036111005 -0.026099788 -0.04741691
writing 0.0063738558 0.006499251 -0.042820327 0.04307419 -0.0043861098 -0.0041025737 -0.019444434 -0.048483014 -0.028569626 0.02895041 -0.044286415 -0.0050114654 -0.058048084 0.04171927 -0.007298304 0.026909795
michael 0.0015915405 0.009888592 -0.017883409 -0.018466478 -0.025861198 0.018322563 0.041564543 0.014058869 0.012950152 0.0025234793 -0.05313956 0.036713026 0.039435543 -0.005113569 0.03950989 -0.00077561033
quality -0.053960685 0.035356656 -0.037654094 -0.039946735 0.0068899943 -0.040768974 0.045753464 -0.034795105 -0.040008444 0.020096522 -0.028289508 0.024798537 0.028534077 0.046033986 -0.0036102233 0.042097222
you'll -0.047818128 -0.044373512 0.018911034 0.046609264 -0.019291192 -0.031282708 0.0033799147 0.008116798 0.0028731464 -0.027945325 -0.048562665 -0.0032986857 0.043111455 -0.024020966 0.027354518 0.008818197
close -0.014420768 0.051041394 -0.023645518 -0.0026825657 -0.0063618864 0.008474675 0.03147463 0.0032889717 -0.032508776 0.04847035 -0.03577671 -0.029950107 -0.015095462 0.008428404 -0.0573773 0.019400496
son -0.05386741 -0.028122384 -0.022058422 0.002970292 0.027853968 -0.028205143 0.040409293 -0.050635267 0.020683294 0.054140985 -0.0326012 -0.041220017 0.006198409 0.029865822 0.049840763 0.022847876
